svm_type c_svc
kernel_type rbf
gamma 0.5
nr_class 2
total_sv 4262
rho -0.326985
label 1 -1
nr_sv 2151 2111
SV
4.738294367190584 47:0.26726124 55:0.26726124 101:0.53452248 171:0.53452248 262:0.26726124 1215:0.26726124 1425:0.26726124 5550:0.26726124 
0.8512751965768915 55:0.28867513 101:0.28867513 315:0.28867513 814:0.28867513 1426:0.28867513 2210:0.57735027 2235:0.28867513 2777:0.28867513 3102:0.28867513 
0.01748199082878415 26:0.26726124 35:0.26726124 42:0.26726124 47:0.26726124 101:0.26726124 289:0.26726124 426:0.26726124 439:0.26726124 532:0.26726124 555:0.26726124 607:0.26726124 949:0.26726124 1707:0.26726124 2179:0.26726124 
0.04487656247297872 89:0.37796447 109:0.37796447 141:0.37796447 966:0.37796447 995:0.37796447 2476:0.37796447 5380:0.37796447 
0.7194730446408851 3:0.26726124 4:0.26726124 47:0.26726124 94:0.26726124 101:0.26726124 388:0.26726124 389:0.26726124 518:0.26726124 1353:0.26726124 1590:0.26726124 1653:0.26726124 2671:0.26726124 4419:0.26726124 5372:0.26726124 
0.6036528970715329 55:0.37796447 177:0.37796447 251:0.37796447 507:0.37796447 581:0.37796447 3554:0.37796447 5378:0.37796447 
5.65685424949 1:0.31622777 11:0.31622777 101:0.31622777 177:0.31622777 318:0.31622777 376:0.31622777 504:0.31622777 643:0.31622777 1508:0.31622777 5393:0.31622777 
0.7985540848218848 1423:1 
5.65685424949 8:0.31622777 55:0.31622777 101:0.31622777 126:0.31622777 209:0.31622777 317:0.31622777 505:0.31622777 958:0.31622777 1086:0.31622777 2921:0.31622777 
1.652993291523682 101:0.5 3587:0.5 4520:0.5 4781:0.5 
1.419573135713459 477:0.70710678 1570:0.70710678 
0.1748793553346779 101:0.70710678 118:0.70710678 
0.9758298321318651 51:0.30151134 101:0.30151134 222:0.30151134 309:0.30151134 409:0.30151134 436:0.30151134 1024:0.30151134 1226:0.30151134 1768:0.30151134 3895:0.30151134 5518:0.30151134 
1.2349481288251 75:0.37796447 101:0.37796447 177:0.37796447 278:0.37796447 386:0.37796447 808:0.37796447 1423:0.37796447 
2.704422096322425 11:0.5547002 55:0.2773501 623:0.5547002 1436:0.2773501 2921:0.2773501 3081:0.2773501 4598:0.2773501 
5.65685424949 3:0.28867513 16:0.57735027 92:0.28867513 101:0.28867513 256:0.28867513 1286:0.28867513 2921:0.28867513 3112:0.28867513 4443:0.28867513 
1.146913302564262 643:0.40824829 818:0.40824829 1640:0.40824829 3916:0.40824829 5380:0.40824829 5510:0.40824829 
0.04302953921147107 55:0.35355339 101:0.35355339 139:0.35355339 186:0.35355339 473:0.35355339 704:0.35355339 1489:0.35355339 3594:0.35355339 
1.870957972068531 11:0.2773501 16:0.2773501 101:0.2773501 512:0.2773501 677:0.5547002 2413:0.2773501 2440:0.2773501 4134:0.2773501 4485:0.2773501 5457:0.2773501 
5.65685424949 2:0.37796447 177:0.37796447 179:0.37796447 425:0.37796447 1065:0.37796447 1717:0.37796447 2220:0.37796447 
0.3392996049584921 101:0.31622777 222:0.31622777 340:0.31622777 521:0.31622777 524:0.31622777 551:0.31622777 1161:0.31622777 1189:0.31622777 2424:0.31622777 3652:0.31622777 
5.65685424949 1:0.4472136 61:0.4472136 101:0.4472136 486:0.4472136 1093:0.4472136 
1.506964817114678 587:0.4472136 1131:0.4472136 1296:0.4472136 2395:0.4472136 5502:0.4472136 
0.2430532999589459 1:0.26726124 26:0.26726124 101:0.53452248 154:0.26726124 654:0.26726124 679:0.26726124 992:0.26726124 1497:0.26726124 1999:0.26726124 2370:0.26726124 3153:0.26726124 
1.326224389442142 35:0.22941573 47:0.22941573 59:0.22941573 101:0.45883147 110:0.22941573 426:0.22941573 558:0.22941573 607:0.22941573 643:0.22941573 1287:0.22941573 1297:0.45883147 2925:0.22941573 4376:0.22941573 
1.184560236379192 5:0.30151134 33:0.30151134 56:0.30151134 101:0.30151134 150:0.30151134 590:0.30151134 732:0.30151134 874:0.30151134 1026:0.30151134 1518:0.30151134 2753:0.30151134 
0.5468337841943137 974:0.57735027 2583:0.57735027 3509:0.57735027 
1.042023982181651 143:0.37796447 177:0.37796447 1214:0.37796447 1256:0.37796447 1636:0.37796447 1988:0.37796447 5655:0.37796447 
1.298087522605571 1:0.33333333 101:0.33333333 173:0.33333333 725:0.33333333 1361:0.33333333 1585:0.33333333 1698:0.33333333 2359:0.33333333 4599:0.33333333 
1.064675876309615 2481:1 
0.2650965928314682 101:0.35355339 174:0.35355339 252:0.35355339 560:0.35355339 781:0.35355339 2813:0.35355339 3147:0.35355339 5381:0.35355339 
0.3645501194167247 44:0.31622777 48:0.31622777 101:0.31622777 222:0.31622777 226:0.31622777 493:0.31622777 644:0.31622777 1105:0.31622777 1296:0.31622777 1580:0.31622777 
0.2129092908345356 24:0.4472136 1499:0.4472136 1510:0.4472136 3681:0.4472136 4683:0.4472136 
1.851054562787324 92:0.5 177:0.5 1570:0.5 4683:0.5 
2.224644247605625 587:0.40824829 825:0.40824829 1856:0.40824829 2348:0.40824829 2395:0.40824829 4945:0.40824829 
0.5929452095242218 55:0.26726124 101:0.26726124 177:0.26726124 295:0.26726124 479:0.53452248 1041:0.26726124 1594:0.26726124 2579:0.26726124 3427:0.26726124 3682:0.26726124 5349:0.26726124 
1.52915666649225 48:0.4472136 227:0.4472136 587:0.4472136 1909:0.4472136 4899:0.4472136 
0.5347601395379281 11:0.37796447 32:0.37796447 75:0.37796447 92:0.37796447 201:0.37796447 222:0.37796447 440:0.37796447 
0.737553220272975 1:0.26726124 10:0.26726124 28:0.26726124 32:0.53452248 101:0.26726124 356:0.26726124 1023:0.26726124 1201:0.26726124 1532:0.26726124 2921:0.26726124 5352:0.26726124 
0.4370938986140787 29:0.28867513 30:0.28867513 47:0.28867513 101:0.28867513 537:0.28867513 826:0.28867513 858:0.28867513 1068:0.28867513 1402:0.28867513 1570:0.28867513 3530:0.28867513 5600:0.28867513 
3.218939320806619 1:0.2773501 101:0.5547002 115:0.2773501 725:0.2773501 1093:0.2773501 1888:0.2773501 2621:0.2773501 3491:0.2773501 5511:0.2773501 5559:0.2773501 
1.326430256225977 177:0.4472136 735:0.4472136 1242:0.4472136 2381:0.4472136 3073:0.4472136 
5.65685424949 101:0.57735027 418:0.57735027 4728:0.57735027 
3.725319362701425 82:0.60302269 83:0.60302269 1626:0.30151134 3582:0.30151134 4750:0.30151134 
0.7279795800213734 6:0.31622777 101:0.31622777 222:0.31622777 252:0.31622777 428:0.31622777 437:0.31622777 607:0.31622777 725:0.31622777 2152:0.31622777 3422:0.31622777 
5.65685424949 2:0.5 27:0.5 101:0.5 1260:0.5 
0.6083178092988172 114:0.35355339 326:0.35355339 587:0.35355339 997:0.35355339 1296:0.35355339 1938:0.35355339 2395:0.35355339 2735:0.35355339 
0.7967690586263668 144:0.35355339 222:0.35355339 238:0.35355339 355:0.35355339 2015:0.35355339 3700:0.35355339 3800:0.35355339 3963:0.35355339 
0.5579946468305822 57:0.33333333 101:0.33333333 418:0.33333333 733:0.33333333 1143:0.33333333 1223:0.33333333 1428:0.33333333 1616:0.33333333 4732:0.33333333 
2.790120927319054 6:0.35355339 101:0.35355339 222:0.35355339 414:0.35355339 418:0.35355339 436:0.35355339 1067:0.35355339 1900:0.35355339 
2.890990164602249 11:0.24253563 20:0.24253563 101:0.24253563 132:0.24253563 236:0.24253563 493:0.24253563 587:0.48507125 757:0.24253563 1064:0.24253563 1223:0.24253563 1296:0.24253563 1500:0.24253563 2874:0.24253563 5420:0.24253563 
0.4254947546355586 101:0.31622777 222:0.31622777 308:0.31622777 607:0.31622777 705:0.31622777 783:0.31622777 1034:0.31622777 1416:0.31622777 1704:0.31622777 2925:0.31622777 
0.5855312145365377 676:0.4472136 781:0.4472136 2261:0.4472136 2769:0.4472136 3676:0.4472136 
0.6863814857286272 47:0.40824829 101:0.40824829 177:0.40824829 252:0.40824829 437:0.40824829 1518:0.40824829 
3.29449226427838 175:0.31622777 587:0.63245553 1296:0.31622777 2205:0.31622777 4021:0.31622777 4627:0.31622777 5519:0.31622777 
0.7959489549596516 11:0.42640143 64:0.21320072 101:0.42640143 177:0.21320072 211:0.21320072 403:0.21320072 611:0.21320072 1902:0.42640143 2375:0.21320072 2808:0.42640143 
0.1864160113137103 140:0.30151134 512:0.30151134 536:0.30151134 607:0.30151134 738:0.30151134 1005:0.30151134 1226:0.30151134 1625:0.30151134 4260:0.30151134 4340:0.30151134 4595:0.30151134 
0.4704217685651063 101:0.4472136 474:0.4472136 514:0.4472136 1223:0.4472136 3503:0.4472136 
2.835896406956752 13:0.4472136 101:0.4472136 2934:0.4472136 3843:0.4472136 5504:0.4472136 
0.4134653937705872 14:0.45883147 40:0.22941573 55:0.22941573 82:0.22941573 83:0.22941573 239:0.22941573 264:0.22941573 306:0.22941573 464:0.22941573 554:0.22941573 560:0.22941573 891:0.22941573 2549:0.22941573 2751:0.22941573 2925:0.22941573 4200:0.22941573 
2.902276245968269 101:0.57735027 508:0.57735027 1570:0.57735027 
0.9438411279750097 3:0.21320072 4:0.21320072 14:0.42640143 22:0.21320072 26:0.21320072 47:0.21320072 101:0.42640143 177:0.21320072 305:0.21320072 584:0.42640143 1803:0.21320072 1808:0.21320072 4755:0.21320072 
5.65685424949 74:0.40824829 101:0.40824829 184:0.40824829 624:0.40824829 747:0.40824829 811:0.40824829 
1.274149155397645 55:0.30151134 172:0.30151134 241:0.30151134 817:0.30151134 1284:0.30151134 1570:0.30151134 2228:0.30151134 2921:0.30151134 3104:0.30151134 3428:0.30151134 3433:0.30151134 
0.6152695920021404 9:0.30151134 246:0.30151134 555:0.30151134 1071:0.30151134 1221:0.30151134 1239:0.30151134 1776:0.30151134 3158:0.30151134 3178:0.30151134 4676:0.30151134 5439:0.30151134 
2.753083286570377 1:0.33333333 50:0.33333333 52:0.33333333 112:0.33333333 170:0.33333333 418:0.33333333 1511:0.33333333 3955:0.33333333 4482:0.33333333 
2.048373247239108 1:0.33333333 9:0.33333333 47:0.33333333 101:0.33333333 202:0.33333333 428:0.33333333 684:0.33333333 1239:0.33333333 2650:0.33333333 
0.8641006624394323 82:0.37796447 83:0.37796447 101:0.37796447 177:0.37796447 1062:0.37796447 1684:0.37796447 2011:0.37796447 
0.05171992700495001 89:0.40824829 460:0.40824829 603:0.40824829 1366:0.40824829 2934:0.40824829 5380:0.40824829 
2.77888777114034 31:0.35355339 101:0.35355339 177:0.35355339 1260:0.35355339 1349:0.35355339 1508:0.35355339 1570:0.35355339 3423:0.35355339 
1.575976248287822 101:0.35355339 219:0.35355339 1570:0.35355339 1808:0.35355339 2908:0.35355339 2925:0.35355339 3148:0.35355339 4623:0.35355339 
0.5796466144458685 227:0.4472136 471:0.4472136 587:0.4472136 2395:0.4472136 4945:0.4472136 
0.5148438896644109 101:0.5 354:0.5 1065:0.5 4661:0.5 
0.9918143149532259 432:0.57735027 1753:0.57735027 3662:0.57735027 
0.7452749577155597 101:0.35355339 1034:0.70710678 1570:0.35355339 3599:0.35355339 5586:0.35355339 
0.2416790889201978 3:0.26726124 101:0.26726124 144:0.26726124 192:0.26726124 222:0.26726124 267:0.26726124 355:0.26726124 806:0.26726124 1339:0.26726124 3426:0.26726124 3978:0.26726124 5374:0.26726124 5445:0.26726124 5548:0.26726124 
5.65685424949 2:0.40824829 16:0.40824829 101:0.40824829 184:0.40824829 662:0.40824829 2384:0.40824829 
5.65685424949 1:0.37796447 5:0.37796447 101:0.37796447 110:0.37796447 190:0.37796447 1570:0.37796447 3155:0.37796447 
2.563045843709324 44:0.33333333 236:0.33333333 587:0.33333333 767:0.33333333 801:0.33333333 2395:0.33333333 3188:0.33333333 4337:0.33333333 4770:0.33333333 
0.1936698397753418 14:0.57735027 82:0.28867513 83:0.28867513 101:0.28867513 696:0.28867513 3829:0.28867513 4100:0.28867513 4158:0.28867513 4257:0.28867513 
0.17068415509554 114:0.2773501 258:0.2773501 587:0.5547002 610:0.2773501 1009:0.2773501 1241:0.2773501 2247:0.2773501 4021:0.2773501 4627:0.2773501 5576:0.2773501 
1.523779023084716 101:0.66666667 857:0.33333333 1923:0.33333333 2921:0.33333333 3184:0.33333333 3499:0.33333333 
2.020442475742436 1:0.20851441 12:0.20851441 14:0.41702883 35:0.20851441 85:0.20851441 101:0.41702883 284:0.20851441 738:0.20851441 1428:0.20851441 2720:0.41702883 2921:0.20851441 4512:0.20851441 5354:0.20851441 5371:0.20851441 
5.65685424949 9:0.28867513 11:0.57735027 101:0.57735027 424:0.28867513 493:0.28867513 1090:0.28867513 
0.6667951357704193 587:0.4472136 691:0.4472136 1009:0.4472136 3759:0.4472136 4945:0.4472136 
2.692219478479613 13:0.40824829 101:0.40824829 871:0.40824829 1477:0.40824829 1728:0.40824829 5380:0.40824829 
1.967877036543558 44:0.35355339 114:0.35355339 236:0.35355339 740:0.35355339 1471:0.35355339 2348:0.35355339 3177:0.35355339 4012:0.35355339 
0.653544185173778 47:0.33333333 101:0.33333333 150:0.33333333 177:0.33333333 313:0.33333333 346:0.33333333 414:0.33333333 2921:0.33333333 5378:0.33333333 
0.2710240235600155 35:0.30151134 90:0.30151134 109:0.30151134 141:0.30151134 436:0.30151134 722:0.30151134 886:0.30151134 1958:0.30151134 2163:0.30151134 3772:0.30151134 3863:0.30151134 
0.6110980922042448 29:0.33333333 30:0.33333333 41:0.33333333 101:0.33333333 262:0.33333333 1942:0.33333333 3496:0.33333333 4616:0.33333333 5380:0.33333333 
0.6587928586609713 156:0.5 264:0.5 891:0.5 1618:0.5 
0.6099295957951472 584:0.70710678 4600:0.70710678 
0.3614238413189814 3:0.30151134 4:0.30151134 55:0.30151134 89:0.30151134 101:0.30151134 127:0.30151134 178:0.30151134 552:0.30151134 3784:0.30151134 4681:0.30151134 5397:0.30151134 
1.679672554044481 101:0.37796447 112:0.37796447 177:0.37796447 465:0.37796447 2068:0.37796447 2505:0.37796447 3891:0.37796447 
2.020111823165522 55:0.28867513 116:0.28867513 662:0.28867513 1260:0.28867513 1381:0.28867513 2779:0.28867513 4118:0.28867513 5354:0.57735027 5491:0.28867513 
0.8238878632280952 4289:0.70710678 4618:0.70710678 
0.6646478283267616 235:0.30151134 502:0.30151134 680:0.30151134 1730:0.30151134 1902:0.60302269 2585:0.30151134 3178:0.30151134 4768:0.30151134 
1.294857563385666 469:0.31622777 737:0.31622777 1223:0.31622777 1761:0.31622777 1802:0.31622777 1902:0.31622777 2854:0.31622777 3102:0.31622777 3561:0.31622777 5376:0.31622777 
0.435349040508732 3:0.40824829 4:0.40824829 101:0.40824829 370:0.40824829 1891:0.40824829 3101:0.40824829 
2.614995889817025 1:0.33333333 101:0.33333333 177:0.33333333 370:0.33333333 465:0.33333333 669:0.33333333 1570:0.33333333 1727:0.33333333 3974:0.33333333 
0.1818522852112787 55:0.28867513 61:0.28867513 89:0.28867513 135:0.57735027 201:0.28867513 900:0.28867513 1763:0.28867513 5380:0.28867513 5558:0.28867513 
0.03194267333378956 37:0.35355339 47:0.35355339 101:0.35355339 111:0.35355339 233:0.35355339 241:0.35355339 493:0.35355339 612:0.35355339 
1.402867051474928 101:0.33333333 177:0.33333333 643:0.33333333 959:0.33333333 1344:0.33333333 1889:0.33333333 5348:0.33333333 5465:0.33333333 5669:0.33333333 
0.1618388514020247 265:0.31622777 988:0.31622777 1132:0.31622777 1214:0.31622777 1283:0.31622777 1296:0.31622777 1471:0.31622777 2348:0.31622777 4141:0.31622777 4626:0.31622777 
0.261079470586622 114:0.31622777 175:0.31622777 258:0.31622777 579:0.31622777 587:0.31622777 637:0.31622777 644:0.31622777 1117:0.31622777 4433:0.31622777 5529:0.31622777 
3.161421016541067 61:0.37796447 92:0.37796447 110:0.37796447 418:0.37796447 765:0.37796447 3155:0.37796447 5380:0.37796447 
2.102003145241369 35:0.37796447 92:0.37796447 101:0.37796447 1423:0.37796447 2921:0.37796447 4600:0.37796447 5409:0.37796447 
4.334069311500881 101:0.4472136 177:0.4472136 205:0.4472136 607:0.4472136 2340:0.4472136 
1.002569226878662 1:0.2773501 101:0.2773501 217:0.2773501 325:0.2773501 454:0.2773501 478:0.2773501 817:0.2773501 854:0.2773501 1214:0.2773501 1414:0.2773501 1933:0.2773501 3084:0.2773501 3654:0.2773501 
0.4758452855689546 47:0.26726124 228:0.26726124 387:0.26726124 595:0.26726124 1019:0.53452248 1143:0.26726124 1280:0.26726124 2439:0.26726124 2876:0.26726124 3540:0.26726124 4732:0.26726124 
0.2538477597732675 4:0.25819889 35:0.25819889 101:0.51639778 141:0.25819889 418:0.25819889 431:0.25819889 590:0.25819889 674:0.25819889 851:0.25819889 887:0.25819889 1416:0.25819889 4044:0.25819889 
0.4080852667586426 29:0.57735027 30:0.57735027 55:0.28867513 731:0.28867513 1941:0.28867513 2037:0.28867513 
0.986264459898156 4:0.24253563 47:0.24253563 101:0.48507125 170:0.24253563 435:0.24253563 572:0.24253563 953:0.24253563 1014:0.24253563 1077:0.24253563 1570:0.24253563 1906:0.24253563 2921:0.24253563 3199:0.24253563 4617:0.24253563 
2.078504952365887 101:0.5 177:0.5 1610:0.5 2835:0.5 
1.994735811675608 82:0.35355339 83:0.35355339 394:0.35355339 815:0.35355339 1788:0.35355339 3147:0.35355339 4475:0.35355339 4677:0.35355339 
0.05594181989675508 109:0.37796447 177:0.37796447 283:0.37796447 677:0.37796447 1412:0.37796447 1416:0.37796447 3999:0.37796447 
0.4992113302076288 35:0.30151134 92:0.30151134 181:0.30151134 453:0.30151134 900:0.30151134 1329:0.30151134 2351:0.30151134 2919:0.30151134 5378:0.30151134 5380:0.30151134 5542:0.30151134 
0.09128984106169692 29:0.5 30:0.5 47:0.25 101:0.25 234:0.25 480:0.25 562:0.25 1747:0.25 1808:0.25 4328:0.25 
5.65685424949 8:0.4472136 35:0.4472136 101:0.4472136 1092:0.4472136 2921:0.4472136 
3.201881168105369 5:0.33333333 115:0.33333333 493:0.33333333 935:0.33333333 1289:0.33333333 2935:0.33333333 4634:0.33333333 4683:0.33333333 4737:0.33333333 
1.361906242415486 9:0.26726124 14:0.53452248 101:0.26726124 177:0.26726124 549:0.26726124 607:0.26726124 662:0.26726124 2590:0.53452248 
0.9907347790926517 1:0.35355339 101:0.35355339 177:0.35355339 701:0.35355339 1260:0.35355339 1349:0.35355339 1570:0.35355339 1602:0.35355339 
0.9797345244368283 29:0.35355339 30:0.35355339 580:0.35355339 900:0.35355339 1285:0.35355339 4219:0.35355339 4747:0.35355339 4772:0.35355339 
2.245504851586525 55:0.37796447 101:0.37796447 177:0.37796447 244:0.37796447 1817:0.37796447 4662:0.37796447 5378:0.37796447 
3.095432983545973 101:0.5 2680:0.5 2921:0.5 4735:0.5 
3.793182789301762 47:0.40824829 101:0.40824829 244:0.40824829 322:0.40824829 1065:0.40824829 4775:0.40824829 
0.8877802661020177 70:0.24253563 101:0.24253563 180:0.24253563 430:0.24253563 510:0.24253563 556:0.24253563 662:0.24253563 668:0.24253563 946:0.48507125 1700:0.24253563 1917:0.24253563 3199:0.24253563 3796:0.24253563 4615:0.24253563 
0.6180524672826916 6:0.30151134 55:0.30151134 93:0.30151134 101:0.30151134 177:0.30151134 749:0.30151134 946:0.60302269 1672:0.30151134 
3.136122390149731 48:0.33333333 196:0.33333333 436:0.33333333 442:0.33333333 587:0.33333333 1291:0.33333333 1296:0.33333333 1521:0.33333333 2338:0.33333333 
1.873466323702275 6:0.2773501 92:0.2773501 101:0.2773501 170:0.2773501 222:0.2773501 641:0.2773501 884:0.2773501 951:0.2773501 962:0.2773501 1470:0.2773501 1511:0.2773501 5380:0.2773501 5404:0.2773501 
0.09575739532097545 101:0.40824829 177:0.40824829 356:0.40824829 451:0.40824829 2087:0.40824829 2906:0.40824829 
0.9509037032190557 16:0.33333333 701:0.33333333 1570:0.66666667 2024:0.33333333 5376:0.33333333 5380:0.33333333 
0.651830883167927 101:0.4472136 323:0.4472136 1215:0.4472136 3101:0.4472136 3187:0.4472136 
1.369689539473051 4:0.33333333 101:0.33333333 116:0.33333333 436:0.33333333 556:0.33333333 584:0.33333333 784:0.33333333 850:0.33333333 5361:0.33333333 
0.3093430244311399 5:0.28867513 7:0.28867513 44:0.28867513 48:0.28867513 175:0.28867513 567:0.28867513 587:0.28867513 605:0.28867513 740:0.28867513 1296:0.28867513 1300:0.28867513 2220:0.28867513 
0.9049210818525952 20:0.35355339 101:0.35355339 188:0.35355339 2035:0.35355339 2253:0.35355339 2921:0.35355339 3092:0.35355339 4226:0.35355339 
0.3508366881037872 47:0.31622777 101:0.31622777 283:0.31622777 618:0.31622777 824:0.31622777 965:0.31622777 2921:0.31622777 3788:0.31622777 4004:0.31622777 4449:0.31622777 
3.919375975247343 6:0.31622777 28:0.31622777 33:0.31622777 84:0.31622777 101:0.31622777 216:0.31622777 1110:0.31622777 1223:0.31622777 2350:0.31622777 3789:0.31622777 
2.39873558950856 418:0.70710678 2248:0.70710678 
0.9731206294106778 101:0.4472136 262:0.4472136 934:0.4472136 1065:0.4472136 4728:0.4472136 
1.334338605972564 52:0.57735027 301:0.57735027 415:0.57735027 
0.3408691771640866 84:0.33333333 222:0.33333333 509:0.33333333 518:0.33333333 663:0.33333333 1219:0.33333333 1518:0.33333333 2691:0.33333333 4018:0.33333333 
2.134281339876884 101:0.37796447 222:0.37796447 807:0.37796447 1065:0.37796447 3609:0.37796447 3951:0.37796447 5380:0.37796447 
0.01321276643734575 38:0.63245553 55:0.31622777 101:0.31622777 155:0.31622777 177:0.31622777 595:0.31622777 3109:0.31622777 
0.2588236832334974 55:0.40824829 395:0.40824829 397:0.40824829 428:0.40824829 475:0.40824829 2650:0.40824829 
0.6274959296140242 2521:0.57735027 3597:0.57735027 5362:0.57735027 
1.044935295039102 35:0.25 42:0.25 101:0.25 112:0.25 245:0.25 378:0.25 689:0.25 771:0.25 1172:0.25 1507:0.25 1518:0.25 1911:0.25 2399:0.25 3110:0.25 3783:0.25 4645:0.25 
0.7233695252913641 29:0.35355339 30:0.35355339 146:0.35355339 158:0.35355339 240:0.35355339 815:0.35355339 929:0.35355339 1334:0.35355339 
1.598910082886552 3:0.31622777 4:0.31622777 55:0.31622777 101:0.31622777 256:0.31622777 2416:0.31622777 3190:0.63245553 
0.1438780250531076 44:0.2773501 48:0.2773501 587:0.2773501 644:0.2773501 740:0.2773501 825:0.2773501 982:0.2773501 1957:0.2773501 2119:0.2773501 3600:0.2773501 4040:0.2773501 4652:0.2773501 5560:0.2773501 
0.4380163512442007 16:0.33333333 101:0.33333333 177:0.33333333 297:0.33333333 1223:0.33333333 2384:0.33333333 2536:0.33333333 3707:0.33333333 4318:0.33333333 
4.584847415173451 101:0.70710678 1253:0.70710678 
1.211156286632551 47:0.35355339 313:0.35355339 897:0.35355339 1912:0.70710678 3972:0.35355339 
4.628573977657126 5:0.30151134 63:0.30151134 101:0.60302269 115:0.30151134 177:0.30151134 535:0.30151134 1038:0.30151134 1185:0.30151134 
0.1844300848056957 4:0.20851441 26:0.20851441 34:0.20851441 101:0.41702883 109:0.62554324 121:0.20851441 196:0.20851441 222:0.20851441 314:0.20851441 342:0.20851441 933:0.20851441 3156:0.20851441 
0.8720171535179491 227:0.37796447 320:0.37796447 587:0.37796447 691:0.37796447 2216:0.37796447 2348:0.37796447 2564:0.37796447 
0.0310681259544423 26:0.4472136 830:0.4472136 1570:0.4472136 4658:0.4472136 5593:0.4472136 
2.693237750394101 28:0.33333333 101:0.33333333 177:0.33333333 244:0.33333333 307:0.33333333 436:0.33333333 607:0.33333333 4683:0.33333333 5350:0.33333333 
1.175290267080441 11:0.30151134 25:0.30151134 66:0.30151134 176:0.30151134 298:0.30151134 537:0.30151134 1071:0.30151134 1577:0.30151134 2215:0.30151134 4696:0.30151134 5484:0.30151134 
1.137497879402387 823:0.70710678 1731:0.70710678 
0.7141253848804747 55:0.28867513 75:0.28867513 101:0.28867513 135:0.28867513 222:0.28867513 241:0.28867513 512:0.28867513 591:0.28867513 1372:0.28867513 2049:0.28867513 3103:0.28867513 5643:0.28867513 
5.65685424949 5:0.40824829 101:0.40824829 190:0.40824829 1570:0.40824829 2925:0.40824829 4767:0.40824829 
2.506647314668661 101:0.37796447 165:0.37796447 177:0.37796447 1164:0.37796447 1570:0.37796447 2221:0.37796447 2363:0.37796447 
0.6630420133927717 44:0.37796447 87:0.37796447 587:0.37796447 767:0.37796447 2377:0.37796447 4643:0.37796447 5356:0.37796447 
5.65685424949 6:0.40824829 55:0.40824829 132:0.40824829 177:0.40824829 1747:0.40824829 4712:0.40824829 
0.2321710231747688 546:0.5 2453:0.5 3869:0.5 4617:0.5 
3.27282512851874 101:0.5 116:0.5 1570:0.5 2855:0.5 
0.5721000197900732 514:0.40824829 587:0.40824829 1364:0.40824829 2545:0.40824829 2785:0.40824829 4298:0.40824829 
1.283647729404676 60:0.40824829 101:0.40824829 204:0.40824829 1027:0.40824829 1436:0.40824829 1803:0.40824829 
5.65685424949 5:0.40824829 9:0.40824829 59:0.40824829 101:0.40824829 722:0.40824829 1224:0.40824829 
1.212007146034612 576:0.37796447 587:0.37796447 1283:0.37796447 1296:0.37796447 1921:0.37796447 2012:0.37796447 4991:0.37796447 
0.2648203930635528 82:0.33333333 83:0.33333333 968:0.33333333 1570:0.66666667 4259:0.33333333 4698:0.33333333 
0.06529171501401385 14:0.5 55:0.25 85:0.25 101:0.25 365:0.25 432:0.25 445:0.25 536:0.25 1006:0.25 1146:0.25 2573:0.25 2686:0.25 2925:0.25 
1.535257989508203 101:0.35355339 271:0.35355339 430:0.35355339 436:0.35355339 1768:0.35355339 2067:0.35355339 2523:0.35355339 4715:0.35355339 
5.65685424949 92:0.31622777 179:0.31622777 222:0.31622777 224:0.31622777 351:0.31622777 1497:0.31622777 2370:0.31622777 2395:0.31622777 5380:0.31622777 5401:0.31622777 
2.200307410378447 101:0.37796447 170:0.37796447 272:0.37796447 465:0.37796447 632:0.37796447 1064:0.37796447 1116:0.37796447 
1.16272425555077 50:0.37796447 56:0.37796447 221:0.37796447 222:0.37796447 241:0.37796447 582:0.37796447 4728:0.37796447 
1.720265082414591 1:0.25819889 3:0.25819889 4:0.25819889 70:0.25819889 101:0.51639778 510:0.25819889 814:0.25819889 1687:0.25819889 1802:0.25819889 3101:0.25819889 3154:0.25819889 4683:0.25819889 
2.647221282991705 16:0.4472136 101:0.4472136 942:0.4472136 1205:0.4472136 5568:0.4472136 
1.197077692345822 47:0.35355339 65:0.35355339 101:0.35355339 107:0.35355339 885:0.35355339 1368:0.35355339 1688:0.35355339 4711:0.35355339 
0.9220025377271274 61:0.35355339 63:0.35355339 84:0.35355339 222:0.35355339 284:0.35355339 851:0.35355339 2652:0.35355339 2845:0.35355339 
4.382443859108294 5:0.37796447 50:0.37796447 177:0.37796447 1436:0.37796447 2360:0.37796447 4726:0.37796447 5403:0.37796447 
2.014148414089708 3:0.37796447 25:0.37796447 101:0.37796447 831:0.37796447 1436:0.37796447 2921:0.37796447 5405:0.37796447 
0.8924172301375681 6:0.2236068 42:0.2236068 49:0.2236068 64:0.2236068 101:0.2236068 115:0.2236068 216:0.2236068 347:0.2236068 436:0.2236068 546:0.2236068 737:0.2236068 851:0.2236068 1085:0.2236068 1467:0.2236068 1956:0.2236068 4615:0.2236068 4622:0.2236068 4675:0.2236068 4709:0.2236068 4729:0.2236068 
0.7209240658928837 47:0.31622777 303:0.31622777 575:0.31622777 622:0.31622777 1129:0.31622777 1162:0.31622777 1226:0.31622777 2416:0.31622777 2610:0.31622777 3617:0.31622777 
0.2024587203000724 61:0.30151134 90:0.30151134 104:0.30151134 177:0.30151134 208:0.30151134 229:0.30151134 357:0.30151134 607:0.30151134 1374:0.30151134 1745:0.30151134 2382:0.30151134 
0.2746149914663747 87:0.30151134 545:0.30151134 587:0.30151134 613:0.30151134 1528:0.30151134 2348:0.30151134 2394:0.30151134 2395:0.30151134 2543:0.30151134 3172:0.30151134 4626:0.30151134 
1.074254149904118 175:0.2773501 320:0.2773501 579:0.2773501 587:0.2773501 687:0.2773501 812:0.2773501 973:0.2773501 1370:0.2773501 1649:0.2773501 1766:0.2773501 1770:0.2773501 4578:0.2773501 5516:0.2773501 
0.4773176767084468 7:0.31622777 222:0.31622777 318:0.31622777 436:0.31622777 524:0.31622777 548:0.31622777 551:0.31622777 790:0.31622777 1260:0.31622777 3073:0.31622777 
1.274270193398753 11:0.25819889 14:0.51639778 79:0.25819889 92:0.25819889 132:0.25819889 206:0.25819889 222:0.25819889 228:0.25819889 231:0.25819889 1247:0.25819889 2099:0.25819889 5353:0.25819889 
0.7429794420877142 1703:1 
2.299177347510731 101:0.60302269 177:0.30151134 594:0.30151134 607:0.30151134 1179:0.30151134 1518:0.30151134 2189:0.30151134 2864:0.30151134 
0.6185850799072112 14:0.47140452 26:0.23570226 40:0.23570226 47:0.23570226 271:0.23570226 669:0.23570226 1570:0.47140452 2363:0.23570226 2921:0.23570226 3155:0.23570226 4683:0.23570226 4730:0.23570226 
0.04064466250766092 15:0.18898224 553:0.18898224 799:0.37796447 1145:0.18898224 1253:0.18898224 1369:0.18898224 1386:0.18898224 1620:0.18898224 2435:0.18898224 2436:0.18898224 2562:0.18898224 2723:0.18898224 2868:0.18898224 2925:0.18898224 3465:0.18898224 3932:0.18898224 3960:0.18898224 4168:0.18898224 4193:0.18898224 4277:0.18898224 4436:0.18898224 5639:0.37796447 
1.627689908081755 2:0.40824829 24:0.40824829 101:0.40824829 1183:0.40824829 1250:0.40824829 1287:0.40824829 
0.08016378520431877 3:0.19611614 4:0.19611614 14:0.39223227 25:0.19611614 26:0.19611614 101:0.19611614 109:0.19611614 303:0.19611614 311:0.19611614 332:0.19611614 414:0.19611614 513:0.39223227 673:0.19611614 1202:0.19611614 1214:0.19611614 1762:0.19611614 2901:0.19611614 2921:0.19611614 3193:0.19611614 4682:0.19611614 
0.7796992230561329 3:0.33333333 26:0.33333333 101:0.33333333 177:0.33333333 607:0.33333333 1226:0.33333333 2451:0.33333333 3519:0.33333333 4664:0.33333333 
1.210547941838474 57:0.33333333 170:0.33333333 272:0.33333333 290:0.33333333 559:0.33333333 1280:0.33333333 2452:0.33333333 3808:0.33333333 4157:0.33333333 
1.502278383974014 101:0.37796447 826:0.37796447 1065:0.37796447 1223:0.37796447 1532:0.37796447 1798:0.37796447 2261:0.37796447 
0.5702607050417003 1:0.30151134 12:0.30151134 47:0.30151134 101:0.30151134 390:0.30151134 528:0.30151134 641:0.30151134 945:0.30151134 2137:0.30151134 5410:0.30151134 5679:0.30151134 
0.1621010411537698 55:0.40824829 101:0.40824829 219:0.40824829 241:0.40824829 446:0.40824829 3071:0.40824829 
1.290073756203959 101:0.30151134 931:0.30151134 1138:0.30151134 1181:0.30151134 1188:0.30151134 1218:0.30151134 1223:0.30151134 2224:0.30151134 3499:0.30151134 4165:0.30151134 4596:0.30151134 
2.681212096042417 19:0.19245009 44:0.19245009 48:0.38490018 175:0.19245009 211:0.38490018 299:0.19245009 534:0.38490018 587:0.38490018 1203:0.19245009 1292:0.19245009 1296:0.19245009 1801:0.19245009 2448:0.19245009 3487:0.19245009 5565:0.19245009 
1.562411716674746 19:0.2773501 44:0.2773501 587:0.2773501 971:0.2773501 1122:0.2773501 2031:0.2773501 2395:0.2773501 2427:0.2773501 2431:0.2773501 4216:0.2773501 4744:0.2773501 4945:0.2773501 5387:0.2773501 
0.5330687391061054 3:0.28867513 15:0.28867513 101:0.28867513 667:0.28867513 680:0.28867513 747:0.28867513 3935:0.28867513 4341:0.57735027 5561:0.28867513 
0.04311293209103409 101:0.4472136 664:0.4472136 722:0.4472136 1065:0.4472136 1520:0.4472136 
0.2073932296639882 252:0.40824829 474:0.40824829 499:0.81649658 
0.3860637885253531 35:0.35355339 101:0.35355339 144:0.35355339 177:0.35355339 216:0.35355339 1232:0.35355339 1339:0.35355339 4061:0.35355339 
1.657017619969555 101:0.5547002 205:0.2773501 327:0.2773501 662:0.2773501 667:0.2773501 2241:0.5547002 5564:0.2773501 
0.2380973308967481 4:0.24253563 101:0.48507125 170:0.24253563 401:0.24253563 436:0.48507125 654:0.24253563 953:0.48507125 3199:0.24253563 
0.5554854032885611 15:0.30151134 172:0.60302269 799:0.30151134 1145:0.30151134 1386:0.30151134 2562:0.30151134 2637:0.30151134 4303:0.30151134 
1.536283616959298 1:0.30151134 28:0.30151134 55:0.30151134 101:0.30151134 181:0.30151134 304:0.30151134 526:0.30151134 807:0.30151134 2150:0.30151134 2921:0.30151134 5392:0.30151134 
1.318446776425077 174:0.31622777 320:0.31622777 476:0.31622777 684:0.31622777 901:0.31622777 1801:0.31622777 2031:0.31622777 2207:0.31622777 3462:0.31622777 4216:0.31622777 
0.4091226656995458 101:0.37796447 981:0.37796447 1350:0.37796447 1419:0.37796447 2131:0.37796447 3768:0.37796447 4413:0.37796447 
0.5693905884807514 48:0.33333333 87:0.33333333 320:0.33333333 326:0.33333333 691:0.33333333 1241:0.33333333 2394:0.33333333 4627:0.33333333 5502:0.33333333 
0.1339549006951134 49:0.37796447 64:0.37796447 699:0.37796447 1572:0.37796447 2364:0.37796447 3201:0.37796447 3954:0.37796447 
0.7766185680214284 26:0.33333333 814:0.66666667 1244:0.33333333 1901:0.33333333 2468:0.33333333 5404:0.33333333 
1.03060074676702 5:0.31622777 52:0.31622777 177:0.31622777 251:0.31622777 396:0.63245553 1223:0.31622777 4736:0.31622777 
1.502439585072455 43:0.35355339 47:0.35355339 133:0.35355339 330:0.35355339 364:0.35355339 2494:0.35355339 2582:0.35355339 2921:0.35355339 
0.5921261070856345 52:0.2773501 81:0.2773501 173:0.2773501 245:0.2773501 252:0.2773501 392:0.2773501 643:0.2773501 654:0.2773501 957:0.2773501 1007:0.2773501 2387:0.2773501 4361:0.2773501 4574:0.2773501 
2.485097185924389 4:0.23570226 44:0.47140452 87:0.23570226 101:0.23570226 135:0.23570226 224:0.23570226 599:0.23570226 606:0.23570226 740:0.23570226 1226:0.23570226 1434:0.23570226 2340:0.23570226 3101:0.23570226 4012:0.23570226 4991:0.23570226 
0.3009934620174783 7:0.2773501 26:0.2773501 47:0.2773501 68:0.2773501 90:0.2773501 101:0.2773501 206:0.2773501 862:0.2773501 1226:0.2773501 1247:0.2773501 2158:0.2773501 2511:0.2773501 3201:0.2773501 
0.0439521255187536 3:0.31622777 4:0.31622777 8:0.31622777 25:0.31622777 101:0.31622777 285:0.31622777 493:0.31622777 1220:0.31622777 3838:0.31622777 5433:0.31622777 
0.3415543205186024 3:0.33333333 29:0.33333333 30:0.33333333 69:0.33333333 101:0.33333333 1407:0.33333333 3679:0.33333333 4180:0.33333333 5467:0.33333333 
1.218592211800176 78:0.35355339 101:0.35355339 449:0.35355339 720:0.35355339 1064:0.35355339 1163:0.35355339 1374:0.35355339 1509:0.35355339 
0.7279361415504073 41:0.4472136 158:0.4472136 436:0.4472136 1483:0.4472136 5373:0.4472136 
5.65685424949 35:0.35355339 92:0.35355339 101:0.35355339 138:0.35355339 177:0.35355339 1570:0.35355339 3426:0.35355339 4737:0.35355339 
1.026238726143596 112:0.35355339 177:0.35355339 450:0.35355339 478:0.35355339 615:0.35355339 627:0.35355339 1121:0.35355339 4515:0.35355339 
0.2830823717489406 35:0.33333333 96:0.33333333 101:0.33333333 194:0.33333333 223:0.33333333 737:0.33333333 1221:0.33333333 2571:0.33333333 5559:0.33333333 
1.1761173687719 101:0.57735027 4262:0.57735027 4658:0.57735027 
0.8257650436295857 25:0.31622777 101:0.31622777 141:0.31622777 206:0.31622777 1226:0.31622777 1260:0.31622777 1328:0.31622777 1671:0.31622777 1763:0.31622777 4439:0.31622777 
2.543420967043477 55:0.40824829 226:0.40824829 694:0.40824829 1065:0.40824829 1086:0.40824829 2921:0.40824829 
2.588037091390371 55:0.4472136 101:0.4472136 193:0.4472136 3428:0.4472136 4728:0.4472136 
0.4616508434243796 14:0.63245553 69:0.31622777 739:0.31622777 1415:0.31622777 1939:0.31622777 3679:0.31622777 5380:0.31622777 
1.287241757445616 116:0.4472136 611:0.4472136 1164:0.4472136 1519:0.4472136 1570:0.4472136 
1.394287334234908 19:0.33333333 87:0.33333333 847:0.33333333 3868:0.33333333 4666:0.33333333 5509:0.66666667 
0.6961796899613248 99:0.35355339 230:0.35355339 356:0.35355339 451:0.35355339 536:0.35355339 1070:0.35355339 2921:0.35355339 4675:0.35355339 
0.9225607677046538 167:0.30151134 176:0.30151134 476:0.30151134 901:0.30151134 1296:0.30151134 1477:0.30151134 1577:0.30151134 2114:0.30151134 2207:0.30151134 3868:0.30151134 4745:0.30151134 
0.3050558906533049 35:0.40824829 101:0.40824829 857:0.40824829 1926:0.40824829 2135:0.40824829 2921:0.40824829 
0.1932459968645977 29:0.26726124 30:0.26726124 82:0.26726124 83:0.26726124 101:0.53452248 1602:0.26726124 2116:0.26726124 2699:0.26726124 3088:0.26726124 4311:0.26726124 4658:0.26726124 
0.4998316387644424 26:0.30151134 35:0.30151134 42:0.30151134 101:0.30151134 110:0.30151134 113:0.30151134 316:0.30151134 607:0.30151134 1518:0.30151134 1754:0.30151134 3522:0.30151134 
0.2573159302569246 55:0.40824829 217:0.40824829 607:0.40824829 2193:0.40824829 5362:0.40824829 5558:0.40824829 
0.9447413613098697 47:0.33333333 101:0.33333333 211:0.33333333 311:0.33333333 532:0.33333333 607:0.33333333 722:0.33333333 3771:0.33333333 5368:0.33333333 
1.526048195687433 6:0.57735027 93:0.57735027 177:0.57735027 
1.107420663369318 1:0.28867513 4:0.28867513 6:0.28867513 55:0.28867513 101:0.28867513 145:0.28867513 170:0.28867513 473:0.28867513 1509:0.28867513 1747:0.28867513 3149:0.28867513 4683:0.28867513 
0.8576588572979074 1285:0.57735027 4074:0.57735027 5404:0.57735027 
0.7942777955399124 114:0.5 1515:0.5 2045:0.5 2629:0.5 
0.6673345507809103 101:0.61237244 241:0.20412415 364:0.20412415 416:0.40824829 430:0.20412415 886:0.20412415 907:0.40824829 1160:0.20412415 1748:0.20412415 4270:0.20412415 
2.903199084015624 1:0.35355339 55:0.35355339 101:0.35355339 177:0.35355339 852:0.35355339 1308:0.35355339 1570:0.35355339 4767:0.35355339 
2.085452610100799 101:0.37796447 281:0.37796447 377:0.37796447 426:0.37796447 2173:0.37796447 2839:0.37796447 3148:0.37796447 
0.3767243069564301 47:0.2773501 101:0.2773501 177:0.2773501 232:0.2773501 410:0.2773501 426:0.2773501 607:0.2773501 643:0.2773501 663:0.2773501 678:0.2773501 1596:0.2773501 2711:0.2773501 2920:0.2773501 
2.057941723190801 101:0.5 115:0.5 4671:0.5 5558:0.5 
0.383347397340123 16:0.31622777 26:0.31622777 35:0.31622777 101:0.31622777 199:0.31622777 436:0.31622777 489:0.31622777 937:0.31622777 1137:0.31622777 1141:0.31622777 
2.2226736904494 24:0.28867513 55:0.28867513 101:0.57735027 191:0.28867513 368:0.28867513 1419:0.28867513 2866:0.28867513 3157:0.28867513 5418:0.28867513 
1.033652752887729 1:0.37796447 101:0.37796447 304:0.37796447 765:0.37796447 1895:0.37796447 2094:0.37796447 3101:0.37796447 
0.2488539321228909 37:0.30151134 57:0.30151134 338:0.30151134 815:0.30151134 1201:0.30151134 1230:0.30151134 1798:0.30151134 3701:0.30151134 4286:0.30151134 4747:0.30151134 4772:0.30151134 
0.8756052429193569 6:0.28867513 12:0.28867513 47:0.28867513 80:0.28867513 177:0.28867513 325:0.28867513 618:0.28867513 734:0.28867513 884:0.28867513 1895:0.28867513 2078:0.28867513 3712:0.28867513 
1.789813831178521 47:0.31622777 101:0.31622777 141:0.31622777 203:0.31622777 226:0.31622777 515:0.31622777 857:0.31622777 2063:0.31622777 2922:0.31622777 3863:0.31622777 
1.511558852064653 9:0.31622777 75:0.31622777 101:0.63245553 353:0.31622777 1427:0.31622777 3085:0.31622777 4394:0.31622777 
0.2277690678097216 101:0.4472136 219:0.4472136 241:0.4472136 1383:0.4472136 2574:0.4472136 
1.120392646613626 55:0.30151134 101:0.60302269 177:0.30151134 251:0.30151134 325:0.30151134 362:0.30151134 1652:0.30151134 3721:0.30151134 
0.1141255616730127 177:0.37796447 188:0.37796447 206:0.37796447 211:0.37796447 302:0.37796447 500:0.37796447 3106:0.37796447 
0.07014215690478477 110:0.2773501 119:0.2773501 206:0.2773501 222:0.2773501 559:0.2773501 873:0.2773501 933:0.2773501 964:0.2773501 1183:0.2773501 1226:0.2773501 1945:0.2773501 3428:0.2773501 3446:0.2773501 
0.008942223044054974 76:0.4472136 475:0.4472136 907:0.4472136 1430:0.4472136 1611:0.4472136 
1.233132145299156 882:0.70710678 2342:0.70710678 
0.4364740503947743 42:0.33333333 182:0.33333333 1151:0.33333333 1405:0.33333333 2447:0.33333333 2841:0.33333333 2925:0.33333333 3897:0.33333333 4461:0.33333333 
0.2988681435815593 101:0.31622777 319:0.31622777 664:0.31622777 1065:0.63245553 1473:0.31622777 1520:0.31622777 2195:0.31622777 
1.376993934051915 1:0.22941573 11:0.22941573 14:0.45883147 20:0.22941573 39:0.22941573 40:0.22941573 61:0.22941573 80:0.22941573 101:0.22941573 201:0.22941573 325:0.22941573 425:0.22941573 661:0.22941573 1436:0.22941573 2636:0.22941573 3718:0.22941573 
1.217153571075411 37:0.4472136 38:0.4472136 101:0.4472136 2362:0.4472136 2682:0.4472136 
1.509759859838042 2347:0.70710678 3569:0.70710678 
4.289078098514088 9:0.26726124 70:0.26726124 101:0.53452248 353:0.26726124 607:0.26726124 756:0.26726124 1570:0.26726124 1903:0.26726124 2364:0.26726124 3726:0.26726124 4611:0.26726124 
4.528961490019911 14:0.63245553 47:0.31622777 97:0.31622777 101:0.31622777 376:0.31622777 1508:0.31622777 3066:0.31622777 
0.01730512838676855 163:0.2773501 439:0.5547002 518:0.5547002 679:0.2773501 1085:0.2773501 3424:0.2773501 4009:0.2773501 
0.01251093358390259 46:0.33333333 47:0.33333333 101:0.33333333 141:0.33333333 177:0.33333333 485:0.33333333 2156:0.33333333 3961:0.33333333 4360:0.33333333 
0.7325361783796982 101:0.31622777 241:0.31622777 814:0.63245553 1223:0.31622777 1226:0.31622777 2347:0.31622777 4683:0.31622777 
5.65685424949 1:0.30151134 101:0.30151134 107:0.30151134 336:0.30151134 411:0.30151134 536:0.30151134 537:0.30151134 2925:0.30151134 4740:0.30151134 5351:0.30151134 5566:0.30151134 
3.517015607136889 3:0.26726124 6:0.26726124 101:0.53452248 222:0.26726124 642:0.26726124 1083:0.26726124 1092:0.26726124 1215:0.26726124 1425:0.26726124 1747:0.26726124 2925:0.26726124 
2.596309949153698 66:0.35355339 177:0.35355339 225:0.35355339 1010:0.35355339 1240:0.35355339 1509:0.35355339 2353:0.35355339 2765:0.35355339 
0.7271474779023376 37:0.33333333 38:0.33333333 55:0.33333333 101:0.33333333 325:0.33333333 890:0.33333333 1065:0.33333333 1642:0.33333333 3857:0.33333333 
5.65685424949 2:0.4472136 9:0.4472136 132:0.4472136 851:0.4472136 1093:0.4472136 
5.65685424949 1:0.35355339 13:0.35355339 55:0.35355339 101:0.35355339 306:0.35355339 1260:0.35355339 2921:0.35355339 3082:0.35355339 
0.9093914153147294 26:0.17407766 47:0.17407766 101:0.34815531 436:0.17407766 853:0.17407766 1531:0.17407766 2353:0.34815531 2625:0.52223297 3466:0.17407766 3707:0.17407766 3936:0.52223297 
5.65685424949 101:0.5 368:0.5 1065:0.5 4771:0.5 
0.2097095085276982 26:0.28867513 33:0.28867513 47:0.28867513 101:0.28867513 115:0.28867513 796:0.28867513 1570:0.28867513 1771:0.28867513 1806:0.28867513 2370:0.28867513 4611:0.28867513 4738:0.28867513 
0.5847802751335612 1:0.28867513 11:0.28867513 32:0.28867513 33:0.28867513 55:0.28867513 85:0.28867513 101:0.28867513 170:0.28867513 190:0.28867513 589:0.28867513 1520:0.28867513 2890:0.28867513 
0.2926242134871156 55:0.30151134 77:0.30151134 188:0.30151134 221:0.30151134 283:0.30151134 461:0.30151134 787:0.30151134 2038:0.30151134 2446:0.30151134 2641:0.30151134 2921:0.30151134 
0.4372689790694025 72:0.4472136 177:0.4472136 186:0.4472136 370:0.4472136 2575:0.4472136 
0.9457058489069887 38:0.30151134 101:0.30151134 109:0.30151134 115:0.30151134 313:0.30151134 546:0.30151134 611:0.30151134 732:0.30151134 958:0.30151134 2047:0.30151134 2742:0.30151134 
1.496259139450979 47:0.40824829 101:0.40824829 297:0.40824829 870:0.40824829 1065:0.40824829 1517:0.40824829 
0.8756799434448155 1:0.33333333 7:0.33333333 10:0.33333333 38:0.33333333 55:0.33333333 101:0.33333333 607:0.33333333 1260:0.33333333 4450:0.33333333 
1.066212355977085 47:0.26726124 101:0.26726124 436:0.26726124 668:0.26726124 782:0.26726124 1070:0.26726124 1141:0.26726124 1974:0.26726124 2165:0.26726124 2496:0.26726124 4437:0.26726124 4675:0.26726124 5351:0.26726124 5468:0.26726124 
0.4336513324755534 47:0.20851441 101:0.41702883 164:0.20851441 222:0.20851441 354:0.20851441 387:0.20851441 508:0.20851441 580:0.20851441 1199:0.41702883 2153:0.20851441 2682:0.20851441 2816:0.20851441 3080:0.20851441 3952:0.20851441 4379:0.20851441 4621:0.20851441 5380:0.20851441 
0.6797919052421243 101:0.35355339 177:0.35355339 869:0.35355339 1137:0.35355339 1701:0.35355339 1930:0.35355339 2371:0.35355339 2372:0.35355339 
2.846622353162141 545:0.70710678 4710:0.70710678 
0.8449302627641195 48:0.31622777 229:0.31622777 459:0.31622777 664:0.31622777 1199:0.31622777 1296:0.31622777 1517:0.31622777 1977:0.31622777 2732:0.31622777 4552:0.31622777 
0.3451543892601402 25:0.4472136 927:0.4472136 1223:0.4472136 2443:0.4472136 2921:0.4472136 
1.739954872777225 55:0.4472136 61:0.4472136 941:0.4472136 1570:0.4472136 2869:0.4472136 
1.393312380814758 376:0.37796447 1570:0.37796447 2925:0.37796447 3150:0.37796447 4036:0.37796447 4767:0.37796447 5564:0.37796447 
0.801417501786843 87:0.35355339 320:0.35355339 812:0.35355339 1514:0.35355339 1595:0.35355339 2056:0.35355339 2146:0.35355339 4626:0.35355339 
1.900109751644394 5:0.37796447 70:0.37796447 101:0.37796447 275:0.37796447 642:0.37796447 1287:0.37796447 3186:0.37796447 
3.63761642317007 6:0.35355339 92:0.35355339 118:0.35355339 222:0.35355339 1570:0.35355339 3203:0.35355339 5380:0.35355339 5558:0.35355339 
1.549172162089568 94:0.35355339 101:0.35355339 129:0.35355339 500:0.35355339 879:0.35355339 945:0.35355339 993:0.35355339 1251:0.35355339 
1.005037611385833 1125:0.70710678 4032:0.70710678 
2.297032004963788 1:0.31622777 59:0.31622777 101:0.31622777 119:0.31622777 121:0.31622777 263:0.31622777 805:0.31622777 1223:0.31622777 1436:0.31622777 3878:0.31622777 
5.65685424949 1:0.35355339 10:0.35355339 101:0.35355339 247:0.35355339 434:0.35355339 1224:0.35355339 1436:0.35355339 2371:0.35355339 
2.026274711586642 43:0.30151134 61:0.30151134 92:0.30151134 170:0.30151134 765:0.30151134 850:0.30151134 953:0.30151134 1225:0.30151134 1478:0.30151134 4138:0.30151134 5380:0.30151134 
0.6730350941091906 6:0.35355339 37:0.35355339 262:0.35355339 319:0.35355339 1212:0.35355339 2375:0.35355339 3109:0.35355339 5379:0.35355339 
0.1363487974668123 85:0.33333333 222:0.33333333 308:0.33333333 328:0.33333333 768:0.33333333 3110:0.33333333 3111:0.33333333 3714:0.33333333 4516:0.33333333 
5.272865466733093 47:0.28867513 68:0.57735027 101:0.28867513 294:0.28867513 370:0.28867513 429:0.28867513 433:0.28867513 3997:0.28867513 4463:0.28867513 
5.65685424949 13:0.40824829 67:0.40824829 68:0.40824829 254:0.40824829 3126:0.40824829 5410:0.40824829 
1.666783646103755 41:0.35355339 92:0.35355339 101:0.35355339 1260:0.35355339 1570:0.35355339 2369:0.35355339 3105:0.35355339 3837:0.35355339 
2.521972436565589 26:0.26726124 101:0.26726124 213:0.26726124 409:0.26726124 604:0.26726124 642:0.26726124 1433:0.26726124 1903:0.26726124 2170:0.26726124 2653:0.26726124 2788:0.26726124 2920:0.26726124 3111:0.26726124 3178:0.26726124 
0.3097484801783174 29:0.37796447 30:0.37796447 177:0.37796447 791:0.37796447 1223:0.37796447 1252:0.37796447 4715:0.37796447 
2.672075424502894 204:0.4472136 722:0.4472136 1710:0.4472136 2921:0.4472136 4679:0.4472136 
0.5483337832635923 206:0.4472136 443:0.4472136 1226:0.4472136 1742:0.4472136 2035:0.4472136 
0.1434178915484926 72:0.4472136 101:0.4472136 132:0.4472136 436:0.4472136 1004:0.4472136 
0.8636632935652282 14:0.4472136 61:0.4472136 237:0.4472136 739:0.4472136 1761:0.4472136 
2.873728930377354 67:0.5 101:0.5 364:0.5 5567:0.5 
3.297098040519602 6:0.37796447 101:0.37796447 140:0.37796447 151:0.37796447 352:0.37796447 1226:0.37796447 4691:0.37796447 
0.283254579246244 26:0.18569534 47:0.37139068 72:0.18569534 101:0.55708601 222:0.18569534 241:0.18569534 285:0.18569534 305:0.18569534 364:0.18569534 401:0.18569534 430:0.18569534 1247:0.18569534 1473:0.18569534 2212:0.18569534 2548:0.18569534 3076:0.18569534 3077:0.18569534 4013:0.18569534 
1.073243902434435 629:0.40824829 1296:0.40824829 2517:0.40824829 3431:0.40824829 4411:0.40824829 5436:0.40824829 
1.489790656130019 96:0.28867513 222:0.28867513 1139:0.28867513 1146:0.28867513 1226:0.57735027 1708:0.28867513 3102:0.28867513 3105:0.28867513 5555:0.28867513 
2.536369312996607 14:0.5 55:0.25 61:0.25 101:0.25 299:0.25 428:0.25 786:0.25 855:0.25 951:0.25 1065:0.25 1497:0.25 1698:0.25 3158:0.25 
0.1129475275125977 60:0.37796447 101:0.37796447 441:0.37796447 2580:0.37796447 4350:0.37796447 5380:0.37796447 5624:0.37796447 
2.106448975535409 5:0.31622777 35:0.31622777 92:0.31622777 444:0.31622777 536:0.31622777 765:0.31622777 1064:0.31622777 1478:0.31622777 1615:0.31622777 5380:0.31622777 
0.1623068007467626 501:0.57735027 3194:0.57735027 5465:0.57735027 
3.205577652366561 11:0.40824829 101:0.40824829 409:0.40824829 1427:0.40824829 2186:0.40824829 4767:0.40824829 
2.211378645961581 146:0.5 149:0.5 929:0.5 1285:0.5 
1.351174154159758 3:0.35355339 4:0.35355339 8:0.35355339 35:0.35355339 101:0.35355339 418:0.35355339 897:0.35355339 4620:0.35355339 
0.5041333960811729 29:0.30151134 30:0.30151134 41:0.30151134 272:0.30151134 553:0.30151134 639:0.30151134 2674:0.60302269 4194:0.30151134 
1.036990664364602 1:0.28867513 81:0.28867513 101:0.57735027 170:0.28867513 393:0.28867513 1150:0.28867513 1159:0.28867513 1480:0.28867513 3175:0.28867513 
1.062238361784714 96:0.40824829 148:0.40824829 341:0.40824829 578:0.40824829 957:0.40824829 1783:0.40824829 
0.1894013067608505 47:0.2236068 89:0.2236068 101:0.2236068 177:0.2236068 232:0.2236068 978:0.2236068 1160:0.2236068 1409:0.4472136 1797:0.2236068 1916:0.2236068 4335:0.4472136 4445:0.2236068 4714:0.2236068 5514:0.2236068 
0.2690392666281163 101:0.5 1298:0.5 1570:0.5 3426:0.5 
0.361507729140175 101:0.37796447 113:0.37796447 177:0.37796447 280:0.37796447 410:0.37796447 538:0.37796447 2591:0.37796447 
0.3105122809899846 3:0.31622777 4:0.31622777 141:0.31622777 203:0.31622777 819:0.31622777 1223:0.31622777 1231:0.31622777 1757:0.31622777 2935:0.31622777 3517:0.31622777 
1.766123785824701 7:0.31622777 10:0.31622777 35:0.31622777 177:0.31622777 313:0.31622777 507:0.31622777 607:0.31622777 1226:0.31622777 2693:0.31622777 3455:0.31622777 
3.685747817033875 47:0.35355339 101:0.70710678 220:0.35355339 553:0.35355339 768:0.35355339 
0.2032699573429955 587:0.66666667 644:0.33333333 2205:0.33333333 2395:0.33333333 3486:0.33333333 3520:0.33333333 
2.33418902251683 16:0.33333333 101:0.33333333 270:0.33333333 368:0.33333333 668:0.33333333 1506:0.33333333 2601:0.33333333 2640:0.33333333 4600:0.33333333 
1.359553573706948 1:0.33333333 12:0.33333333 57:0.33333333 68:0.33333333 80:0.33333333 101:0.33333333 250:0.33333333 338:0.33333333 1895:0.33333333 
1.877602459288532 55:0.33333333 72:0.33333333 82:0.33333333 83:0.33333333 101:0.33333333 1081:0.33333333 2921:0.33333333 4309:0.33333333 4661:0.33333333 
5.65685424949 1:0.33333333 6:0.33333333 9:0.33333333 10:0.33333333 51:0.33333333 101:0.33333333 1240:0.33333333 3101:0.33333333 4684:0.33333333 
2.698212849015992 8:0.33333333 33:0.33333333 55:0.33333333 216:0.33333333 546:0.33333333 1385:0.33333333 1623:0.33333333 2639:0.33333333 3426:0.33333333 
0.5979167980640206 6:0.40824829 101:0.40824829 151:0.40824829 449:0.40824829 1511:0.40824829 3628:0.40824829 
1.989008645589876 101:0.4472136 630:0.4472136 1280:0.4472136 1895:0.4472136 4229:0.4472136 
1.442836455795173 82:0.31622777 83:0.31622777 101:0.31622777 425:0.31622777 1289:0.31622777 1684:0.63245553 2011:0.31622777 
1.932649796017363 1:0.2773501 55:0.2773501 101:0.5547002 296:0.2773501 611:0.2773501 940:0.2773501 1468:0.2773501 2464:0.2773501 2921:0.2773501 4734:0.2773501 
3.154641486739516 3:0.35355339 4:0.35355339 88:0.35355339 1480:0.35355339 1762:0.35355339 2372:0.35355339 2935:0.35355339 5569:0.35355339 
3.432018026028063 6:0.5 191:0.5 764:0.5 3899:0.5 
1.132361291831832 1:0.23570226 14:0.47140452 37:0.23570226 47:0.23570226 101:0.47140452 178:0.23570226 853:0.23570226 1510:0.23570226 1893:0.23570226 2136:0.23570226 2647:0.23570226 4464:0.23570226 
0.2024185836100459 47:0.33333333 51:0.33333333 101:0.33333333 177:0.33333333 436:0.33333333 493:0.33333333 1490:0.33333333 1700:0.33333333 4633:0.33333333 
0.9286910452464229 233:0.5 671:0.5 877:0.5 3524:0.5 
1.621248286140164 101:0.40824829 546:0.40824829 694:0.40824829 1216:0.40824829 1808:0.40824829 4630:0.40824829 
2.683667467873557 6:0.5 101:0.5 193:0.5 1757:0.5 
1.262785658671977 3:0.25 4:0.25 37:0.25 101:0.25 177:0.25 201:0.25 405:0.25 418:0.5 1511:0.25 3156:0.25 3752:0.25 5417:0.25 5528:0.25 
0.9172509861431343 139:0.4472136 748:0.4472136 1747:0.4472136 5499:0.4472136 5524:0.4472136 
0.4149780233743256 26:0.25819889 42:0.25819889 52:0.25819889 55:0.25819889 101:0.25819889 115:0.25819889 566:0.25819889 607:0.25819889 654:0.25819889 662:0.25819889 1147:0.25819889 2180:0.25819889 2618:0.25819889 2897:0.25819889 3928:0.25819889 
0.3972047482266012 101:0.37796447 271:0.37796447 285:0.37796447 552:0.37796447 2669:0.37796447 3108:0.37796447 4771:0.37796447 
0.6054644792111625 69:0.30151134 445:0.30151134 1148:0.60302269 1492:0.30151134 1971:0.30151134 2805:0.30151134 3948:0.30151134 4155:0.30151134 
0.0957093519671094 82:0.35355339 83:0.35355339 149:0.35355339 177:0.35355339 241:0.35355339 554:0.35355339 952:0.35355339 2033:0.35355339 
1.261701814456955 69:0.57735027 274:0.57735027 952:0.57735027 
2.557416640830234 53:0.35355339 92:0.35355339 132:0.35355339 400:0.35355339 921:0.35355339 931:0.35355339 1747:0.35355339 5380:0.35355339 
0.6611502700569011 1163:0.70710678 3439:0.70710678 
1.15225969493422 1570:0.4472136 1754:0.4472136 3428:0.4472136 5355:0.4472136 5570:0.4472136 
0.183829394174317 35:0.2773501 47:0.2773501 101:0.2773501 303:0.2773501 387:0.2773501 418:0.2773501 508:0.2773501 568:0.2773501 1690:0.2773501 1779:0.2773501 2454:0.2773501 3199:0.2773501 3592:0.2773501 
0.03590928192201632 3:0.33333333 4:0.33333333 101:0.33333333 112:0.33333333 177:0.33333333 300:0.33333333 1169:0.33333333 2039:0.33333333 2678:0.33333333 
0.909170020297692 35:0.57735027 960:0.57735027 1481:0.57735027 
0.3251009871884465 4:0.26726124 101:0.53452248 465:0.26726124 896:0.26726124 978:0.26726124 1245:0.26726124 1924:0.26726124 2158:0.26726124 2398:0.26726124 3975:0.26726124 4067:0.26726124 
0.02227105593912912 19:0.2773501 44:0.2773501 48:0.2773501 87:0.2773501 587:0.2773501 740:0.2773501 988:0.2773501 1612:0.2773501 1982:0.2773501 2119:0.2773501 2203:0.2773501 2457:0.2773501 4203:0.2773501 
0.1071194125945159 93:0.4472136 101:0.4472136 271:0.4472136 593:0.4472136 4653:0.4472136 
0.4275678695317346 37:0.37796447 101:0.37796447 111:0.37796447 285:0.37796447 1340:0.37796447 1747:0.37796447 5422:0.37796447 
3.792910414409918 61:0.40824829 146:0.40824829 177:0.40824829 501:0.40824829 732:0.40824829 1723:0.40824829 
0.7232425244421401 177:0.40824829 178:0.40824829 187:0.40824829 2134:0.40824829 4728:0.40824829 5371:0.40824829 
0.1101319135611929 1:0.37796447 24:0.37796447 188:0.37796447 292:0.37796447 2017:0.37796447 2935:0.37796447 3626:0.37796447 
5.209444788731364 43:0.30151134 101:0.60302269 154:0.30151134 177:0.30151134 607:0.30151134 747:0.30151134 1507:0.30151134 2365:0.30151134 
0.6738555040425176 520:0.4472136 1231:0.4472136 1747:0.4472136 2935:0.4472136 3544:0.4472136 
2.774198915189995 6:0.22941573 25:0.22941573 101:0.6882472 177:0.22941573 191:0.22941573 389:0.22941573 806:0.22941573 854:0.22941573 1298:0.22941573 2351:0.22941573 4391:0.22941573 
2.068703368971659 6:0.37796447 184:0.37796447 721:0.37796447 831:0.37796447 1243:0.37796447 2620:0.37796447 2719:0.37796447 
0.5524391292498602 14:0.53452248 101:0.26726124 408:0.26726124 804:0.26726124 1689:0.26726124 2521:0.26726124 3441:0.26726124 3684:0.26726124 3848:0.26726124 5466:0.26726124 5609:0.26726124 
0.7735868236830272 177:0.33333333 621:0.33333333 722:0.33333333 775:0.33333333 1347:0.33333333 2207:0.33333333 2236:0.33333333 2458:0.33333333 5380:0.33333333 
4.773761516204224 2:0.28867513 18:0.28867513 92:0.28867513 101:0.28867513 222:0.28867513 275:0.28867513 692:0.28867513 1215:0.28867513 2194:0.28867513 2921:0.28867513 2926:0.28867513 5380:0.28867513 
0.9654126710201126 353:0.5 1226:0.5 2613:0.5 2925:0.5 
0.7707884639627828 114:0.40824829 258:0.40824829 320:0.40824829 587:0.40824829 797:0.40824829 2628:0.40824829 
0.8351393478225628 18:0.21821789 61:0.21821789 101:0.43643578 246:0.21821789 263:0.21821789 368:0.21821789 621:0.21821789 747:0.21821789 1221:0.21821789 1497:0.21821789 1748:0.21821789 1776:0.21821789 1806:0.21821789 2213:0.21821789 4161:0.21821789 4292:0.21821789 4701:0.21821789 4738:0.21821789 
3.427751348884528 61:0.37796447 92:0.37796447 222:0.37796447 3069:0.37796447 3091:0.37796447 5349:0.37796447 5380:0.37796447 
0.4231574376702029 101:0.31622777 535:0.31622777 811:0.31622777 1497:0.31622777 1505:0.31622777 1520:0.31622777 1579:0.31622777 2909:0.31622777 4385:0.31622777 4733:0.31622777 
1.856942943212967 82:0.40824829 83:0.40824829 537:0.40824829 2559:0.40824829 2773:0.40824829 4750:0.40824829 
0.2539643862911808 41:0.4472136 101:0.4472136 103:0.4472136 370:0.4472136 4585:0.4472136 
3.55885485386593 101:0.33333333 366:0.33333333 560:0.33333333 1902:0.33333333 2926:0.66666667 4675:0.33333333 
1.632883683116664 1:0.26726124 7:0.26726124 12:0.26726124 101:0.26726124 527:0.53452248 607:0.26726124 1226:0.26726124 2620:0.26726124 2921:0.26726124 3816:0.26726124 4039:0.26726124 
0.408430627110105 624:0.31622777 705:0.31622777 1028:0.31622777 1125:0.31622777 1659:0.31622777 1790:0.31622777 1936:0.31622777 2347:0.31622777 2437:0.31622777 2921:0.31622777 
0.643113428665346 355:0.30151134 502:0.60302269 1238:0.30151134 1793:0.30151134 2372:0.30151134 2615:0.30151134 3069:0.30151134 4719:0.30151134 
0.07475394102062695 24:0.4472136 586:0.4472136 1223:0.4472136 2767:0.4472136 5606:0.4472136 
0.9128247697920637 33:0.31622777 41:0.31622777 55:0.31622777 101:0.31622777 103:0.31622777 446:0.31622777 464:0.31622777 483:0.31622777 940:0.31622777 3108:0.31622777 
0.6114294368849222 101:0.23570226 112:0.23570226 126:0.23570226 143:0.23570226 972:0.23570226 978:0.23570226 1214:0.23570226 1409:0.23570226 1518:0.23570226 1719:0.23570226 2030:0.23570226 3158:0.23570226 4269:0.23570226 4446:0.23570226 4495:0.23570226 5379:0.23570226 5380:0.23570226 5481:0.23570226 
3.900100675238329 74:0.37796447 101:0.37796447 226:0.37796447 244:0.37796447 493:0.37796447 1091:0.37796447 1436:0.37796447 
1.539307517824165 101:0.25 176:0.25 211:0.25 263:0.25 271:0.25 295:0.25 368:0.25 428:0.25 476:0.25 901:0.25 1477:0.25 1570:0.25 1902:0.25 2207:0.25 2653:0.25 2920:0.25 
0.6424954760153138 77:0.4472136 177:0.4472136 271:0.4472136 461:0.4472136 4728:0.4472136 
1.385856410246483 587:0.5 1320:0.5 4766:0.5 5647:0.5 
0.521021985144134 6:0.33333333 11:0.33333333 20:0.33333333 80:0.33333333 101:0.33333333 319:0.33333333 325:0.33333333 1798:0.33333333 1808:0.33333333 
0.6256260031640027 1423:0.5 1699:0.5 3815:0.5 4577:0.5 
5.479170439081788 101:0.4472136 177:0.4472136 317:0.4472136 1074:0.4472136 1808:0.4472136 
0.7623794840278458 29:0.35355339 30:0.35355339 1637:0.35355339 1935:0.35355339 2362:0.35355339 3778:0.35355339 4459:0.35355339 4644:0.35355339 
1.95663615321634 55:0.40824829 177:0.40824829 230:0.40824829 559:0.40824829 1092:0.40824829 1932:0.40824829 
0.6295458814992367 409:0.30151134 557:0.30151134 638:0.30151134 872:0.30151134 1195:0.30151134 1749:0.30151134 2374:0.30151134 4047:0.30151134 4453:0.30151134 5349:0.30151134 5363:0.30151134 
0.1071140730771769 11:0.25819889 101:0.25819889 297:0.25819889 643:0.25819889 1511:0.25819889 1531:0.51639778 3466:0.51639778 3878:0.25819889 5380:0.25819889 
3.772026736050993 47:0.5 101:0.5 177:0.5 339:0.5 
0.7577201512957458 42:0.2773501 55:0.2773501 101:0.5547002 279:0.2773501 607:0.2773501 851:0.2773501 1147:0.2773501 1570:0.2773501 2180:0.2773501 2897:0.2773501 
5.214330094974573 5:0.26726124 40:0.26726124 101:0.53452248 177:0.26726124 934:0.26726124 1484:0.26726124 1570:0.53452248 3109:0.26726124 
5.65685424949 10:0.37796447 35:0.37796447 92:0.37796447 177:0.37796447 271:0.37796447 430:0.37796447 5353:0.37796447 
1.018414296899469 3:0.35355339 8:0.35355339 121:0.35355339 177:0.35355339 200:0.35355339 267:0.35355339 1799:0.35355339 3840:0.35355339 
2.600176265711123 33:0.33333333 101:0.33333333 177:0.33333333 436:0.33333333 851:0.33333333 1260:0.33333333 1393:0.33333333 3919:0.33333333 4729:0.33333333 
0.3411756116199287 26:0.33333333 42:0.33333333 55:0.33333333 101:0.33333333 259:0.33333333 607:0.33333333 868:0.33333333 1414:0.33333333 1518:0.33333333 
0.1866936994603124 14:0.5 42:0.25 55:0.25 101:0.5 177:0.25 279:0.25 824:0.25 1122:0.25 3669:0.25 4564:0.25 
0.07054152082416898 56:0.28867513 101:0.28867513 150:0.28867513 308:0.28867513 365:0.28867513 444:0.28867513 595:0.28867513 1730:0.28867513 2921:0.28867513 3181:0.28867513 3721:0.28867513 4226:0.28867513 
2.26942749541001 159:0.33333333 177:0.33333333 409:0.33333333 477:0.33333333 1255:0.33333333 3067:0.33333333 3110:0.33333333 4051:0.33333333 5668:0.33333333 
0.7414827613437924 38:0.40824829 222:0.40824829 1428:0.40824829 1642:0.40824829 1894:0.40824829 2921:0.40824829 
0.3165778607713968 101:0.35355339 155:0.35355339 1246:0.35355339 1343:0.35355339 1756:0.35355339 1786:0.35355339 2605:0.35355339 3770:0.35355339 
0.5137318695687444 72:0.31622777 92:0.31622777 101:0.31622777 271:0.31622777 305:0.31622777 533:0.31622777 1077:0.31622777 1686:0.31622777 2351:0.31622777 3914:0.31622777 
0.3147996501549307 9:0.33333333 101:0.33333333 611:0.33333333 643:0.33333333 706:0.33333333 1071:0.33333333 1497:0.33333333 2370:0.33333333 3158:0.33333333 
2.536584768057835 1:0.31622777 11:0.31622777 101:0.31622777 170:0.31622777 202:0.31622777 251:0.31622777 1325:0.31622777 1679:0.31622777 2194:0.31622777 2225:0.31622777 
0.4153106855037456 35:0.25 89:0.25 101:0.25 144:0.25 150:0.5 177:0.25 828:0.25 1309:0.25 2372:0.5 4715:0.25 
2.434327757226507 35:0.28867513 38:0.28867513 44:0.28867513 101:0.28867513 123:0.28867513 204:0.28867513 504:0.28867513 587:0.28867513 746:0.28867513 2375:0.28867513 2921:0.28867513 4206:0.28867513 
3.274464748657572 55:0.26726124 101:0.53452248 241:0.26726124 461:0.26726124 552:0.26726124 573:0.26726124 1226:0.26726124 1905:0.26726124 3155:0.26726124 4729:0.26726124 4730:0.26726124 
1.278595032962285 177:0.40824829 700:0.40824829 1762:0.40824829 1800:0.40824829 2815:0.40824829 2935:0.40824829 
1.444736346974814 3:0.40824829 10:0.40824829 15:0.40824829 101:0.40824829 177:0.40824829 3713:0.40824829 
2.01885177702925 35:0.31622777 37:0.31622777 365:0.31622777 643:0.31622777 669:0.31622777 1150:0.31622777 1994:0.31622777 2372:0.31622777 2919:0.31622777 3093:0.31622777 
0.1707089744125388 3:0.23570226 4:0.23570226 5:0.23570226 26:0.47140452 35:0.23570226 101:0.23570226 506:0.23570226 670:0.23570226 1223:0.23570226 1644:0.23570226 1742:0.23570226 1951:0.23570226 1989:0.23570226 3569:0.23570226 3929:0.23570226 
0.6633933052938916 1:0.30151134 10:0.30151134 38:0.30151134 85:0.30151134 101:0.30151134 177:0.30151134 201:0.30151134 277:0.30151134 338:0.30151134 1675:0.30151134 3076:0.30151134 
0.2919750058849829 3:0.35355339 4:0.35355339 47:0.35355339 101:0.35355339 178:0.35355339 2341:0.35355339 2819:0.35355339 5361:0.35355339 
3.231441209379701 1:0.31622777 33:0.31622777 101:0.31622777 112:0.31622777 177:0.31622777 590:0.31622777 952:0.31622777 1016:0.31622777 1362:0.31622777 1511:0.31622777 
1.30759457323425 87:0.30151134 258:0.30151134 587:0.30151134 761:0.30151134 1283:0.30151134 1296:0.30151134 1514:0.30151134 2203:0.30151134 2395:0.30151134 3094:0.30151134 4627:0.30151134 
0.2888017253823592 82:0.37796447 83:0.37796447 155:0.37796447 205:0.37796447 2201:0.37796447 3090:0.37796447 4119:0.37796447 
0.7324800292621787 29:0.40824829 30:0.40824829 560:0.40824829 1570:0.40824829 2802:0.40824829 4624:0.40824829 
1.1816216446757 6:0.35355339 101:0.35355339 408:0.35355339 449:0.35355339 770:0.35355339 1353:0.35355339 2921:0.35355339 3889:0.35355339 
0.2701119242869837 525:0.57735027 1307:0.57735027 4385:0.57735027 
1.146348667271085 9:0.35355339 37:0.35355339 55:0.35355339 93:0.35355339 289:0.35355339 570:0.35355339 2260:0.35355339 2925:0.35355339 
0.420208226634223 37:0.24253563 44:0.24253563 48:0.24253563 87:0.24253563 101:0.24253563 111:0.24253563 177:0.24253563 283:0.24253563 317:0.24253563 320:0.24253563 587:0.24253563 740:0.24253563 1225:0.24253563 1891:0.24253563 2105:0.24253563 3127:0.24253563 3907:0.24253563 
2.373639550510378 11:0.30151134 55:0.30151134 101:0.30151134 109:0.30151134 197:0.30151134 208:0.30151134 1087:0.30151134 1807:0.30151134 3149:0.30151134 4728:0.30151134 5384:0.30151134 
5.65685424949 11:0.70710678 2921:0.70710678 
1.693827822661678 101:0.70710678 5620:0.70710678 
2.573529539356774 9:0.37796447 101:0.37796447 1789:0.37796447 2920:0.37796447 3111:0.37796447 4722:0.37796447 4733:0.37796447 
0.6021327574583437 35:0.30151134 42:0.30151134 101:0.60302269 109:0.30151134 206:0.30151134 1507:0.30151134 2223:0.30151134 4736:0.30151134 
4.203114862996347 3:0.31622777 4:0.31622777 16:0.31622777 67:0.31622777 101:0.31622777 226:0.31622777 295:0.31622777 1058:0.31622777 1223:0.31622777 4507:0.31622777 
1.396308516461182 47:0.31622777 367:0.31622777 1070:0.31622777 1498:0.31622777 2082:0.31622777 2165:0.31622777 4437:0.31622777 4674:0.31622777 5468:0.31622777 5482:0.31622777 
0.00106325577057665 47:0.53452248 101:0.26726124 284:0.26726124 390:0.26726124 534:0.26726124 607:0.26726124 699:0.26726124 927:0.26726124 1017:0.26726124 2921:0.26726124 5376:0.26726124 
0.2231863769991363 3:0.31622777 4:0.31622777 34:0.31622777 47:0.31622777 96:0.31622777 101:0.31622777 530:0.31622777 627:0.31622777 933:0.31622777 3156:0.31622777 
0.5126929032268803 3:0.37796447 4:0.37796447 6:0.37796447 170:0.37796447 177:0.37796447 501:0.37796447 3110:0.37796447 
1.102375822337996 101:0.42640143 213:0.21320072 325:0.21320072 436:0.21320072 611:0.21320072 664:0.21320072 851:0.21320072 1079:0.21320072 1138:0.21320072 1181:0.21320072 1573:0.21320072 2435:0.21320072 2536:0.21320072 2625:0.21320072 2689:0.21320072 3105:0.21320072 3453:0.21320072 3584:0.21320072 5574:0.21320072 
1.287224360047462 13:0.40824829 87:0.40824829 252:0.40824829 1513:0.40824829 2744:0.40824829 4137:0.40824829 
1.460244733901089 6:0.33333333 101:0.33333333 191:0.33333333 365:0.33333333 393:0.33333333 431:0.33333333 778:0.33333333 1506:0.33333333 2921:0.33333333 
1.434770084673982 320:0.30151134 644:0.30151134 825:0.30151134 938:0.30151134 1856:0.30151134 2861:0.30151134 2873:0.60302269 4718:0.30151134 
0.1750897097917218 101:0.4472136 1570:0.4472136 2568:0.4472136 3190:0.4472136 4650:0.4472136 
0.6016610576970053 16:0.40824829 29:0.40824829 32:0.40824829 473:0.40824829 606:0.40824829 2385:0.40824829 
0.413026236557952 55:0.31622777 447:0.31622777 478:0.31622777 568:0.31622777 1357:0.31622777 1690:0.31622777 1915:0.31622777 2185:0.31622777 2554:0.31622777 3851:0.31622777 
1.050545429842665 432:0.5 2597:0.5 3693:0.5 4296:0.5 
1.08194257578757 101:0.5 178:0.5 408:0.5 1747:0.5 
1.436150016604649 433:0.2773501 533:0.2773501 1215:0.2773501 1284:0.2773501 1424:0.2773501 3101:0.5547002 3187:0.5547002 
0.6920343696083143 14:0.39223227 55:0.19611614 101:0.19611614 211:0.19611614 231:0.19611614 311:0.39223227 735:0.39223227 1065:0.19611614 1248:0.19611614 1297:0.19611614 1520:0.19611614 1894:0.19611614 2352:0.19611614 3900:0.39223227 
0.5326907897365599 55:0.25 101:0.25 191:0.25 309:0.25 527:0.25 577:0.25 1029:0.25 1226:0.25 1330:0.5 2052:0.25 3962:0.25 4535:0.25 4675:0.25 
0.3456417411274115 1260:0.57735027 1703:0.57735027 1910:0.57735027 
0.1179730452338425 587:0.33333333 629:0.33333333 2196:0.33333333 2205:0.33333333 2348:0.33333333 2395:0.33333333 2397:0.33333333 2735:0.33333333 3604:0.33333333 
0.5272573797094823 37:0.26726124 47:0.26726124 55:0.26726124 101:0.26726124 191:0.26726124 222:0.26726124 307:0.26726124 397:0.26726124 883:0.26726124 969:0.26726124 1472:0.26726124 3193:0.26726124 4055:0.26726124 5563:0.26726124 
0.6584681298105071 61:0.40824829 101:0.40824829 816:0.40824829 2204:0.40824829 2488:0.40824829 2898:0.40824829 
0.9856999817230703 96:0.30151134 101:0.30151134 115:0.30151134 578:0.30151134 867:0.30151134 875:0.30151134 1251:0.30151134 2231:0.30151134 2580:0.30151134 3983:0.30151134 4280:0.30151134 
0.9629611737579559 37:0.35355339 241:0.35355339 2218:0.35355339 2236:0.35355339 2519:0.35355339 2804:0.35355339 4579:0.35355339 4584:0.35355339 
0.179962144533794 101:0.40824829 436:0.40824829 1214:0.40824829 2375:0.40824829 2398:0.40824829 3482:0.40824829 
0.7668378722655227 47:0.37796447 78:0.37796447 238:0.37796447 643:0.37796447 765:0.37796447 1487:0.37796447 2077:0.37796447 
0.4930232003886453 55:0.5 101:0.5 263:0.5 824:0.5 
4.260225622774734 13:0.35355339 101:0.35355339 151:0.35355339 171:0.35355339 2261:0.35355339 2354:0.35355339 2926:0.35355339 4711:0.35355339 
0.7634561107313107 47:0.35355339 412:0.35355339 1481:0.35355339 2599:0.35355339 2679:0.35355339 3427:0.35355339 4172:0.35355339 4330:0.35355339 
0.6142819643567842 166:0.31622777 177:0.31622777 195:0.31622777 305:0.31622777 851:0.31622777 1821:0.31622777 2668:0.31622777 3840:0.31622777 4684:0.31622777 4734:0.31622777 
2.817703399735433 6:0.5 327:0.5 2935:0.5 5458:0.5 
2.346033937241725 101:0.35355339 223:0.35355339 953:0.35355339 959:0.35355339 1889:0.35355339 1894:0.35355339 2921:0.35355339 4763:0.35355339 
3.309265022918889 101:0.57735027 184:0.28867513 664:0.28867513 1065:0.28867513 1520:0.28867513 1573:0.28867513 1808:0.28867513 2369:0.28867513 4102:0.28867513 
0.6711297148421772 587:0.4472136 767:0.4472136 2535:0.4472136 2798:0.4472136 4745:0.4472136 
1.240697678409136 1:0.24253563 11:0.24253563 47:0.24253563 101:0.48507125 234:0.24253563 287:0.24253563 811:0.24253563 1018:0.24253563 1140:0.24253563 1215:0.24253563 1225:0.24253563 1919:0.24253563 1958:0.24253563 3116:0.24253563 
0.4145212912967762 47:0.28867513 101:0.28867513 182:0.28867513 241:0.28867513 436:0.28867513 750:0.28867513 861:0.28867513 1073:0.28867513 1476:0.28867513 1518:0.28867513 2749:0.28867513 2925:0.28867513 
1.739870072437278 1:0.31622777 11:0.31622777 32:0.31622777 47:0.31622777 101:0.31622777 401:0.31622777 468:0.31622777 729:0.31622777 1436:0.31622777 1708:0.31622777 
1.592934403951897 6:0.26726124 31:0.26726124 47:0.26726124 101:0.53452248 155:0.26726124 418:0.26726124 1226:0.26726124 1747:0.26726124 3082:0.26726124 3149:0.26726124 4017:0.26726124 
0.01291780185076333 25:0.31622777 42:0.31622777 49:0.31622777 101:0.31622777 436:0.31622777 1520:0.31622777 1976:0.31622777 2396:0.31622777 2931:0.31622777 4294:0.31622777 
1.721517613760017 1:0.30151134 35:0.30151134 37:0.30151134 101:0.30151134 361:0.30151134 365:0.30151134 1570:0.30151134 2160:0.30151134 3123:0.30151134 3849:0.30151134 5378:0.30151134 
2.033205858323139 55:0.40824829 101:0.40824829 202:0.40824829 774:0.40824829 1153:0.40824829 4464:0.40824829 
2.775346756406106 14:0.66666667 82:0.33333333 83:0.33333333 408:0.33333333 4597:0.33333333 5470:0.33333333 
3.168700265794444 11:0.40824829 101:0.40824829 383:0.40824829 871:0.40824829 1572:0.40824829 4731:0.40824829 
0.08403384525536722 35:0.40824829 520:0.40824829 570:0.40824829 1302:0.40824829 1610:0.40824829 1747:0.40824829 
0.7121448545341956 101:0.2773501 177:0.2773501 492:0.2773501 965:0.2773501 1219:0.2773501 1286:0.2773501 2368:0.2773501 2386:0.2773501 2829:0.2773501 2926:0.2773501 3091:0.2773501 4131:0.2773501 4730:0.2773501 
2.284347434127433 236:0.5 644:0.5 4760:0.5 5454:0.5 
1.505758929179273 5:0.25819889 55:0.25819889 101:0.51639778 139:0.25819889 244:0.25819889 473:0.25819889 726:0.25819889 1570:0.25819889 1747:0.25819889 1808:0.25819889 2200:0.25819889 4697:0.25819889 
0.3598789404370425 3:0.2773501 89:0.2773501 101:0.2773501 228:0.2773501 313:0.2773501 362:0.2773501 366:0.2773501 450:0.2773501 513:0.2773501 640:0.2773501 1388:0.2773501 2554:0.2773501 3156:0.2773501 
1.118130642276503 1:0.31622777 7:0.31622777 12:0.31622777 38:0.31622777 101:0.31622777 504:0.31622777 548:0.31622777 1200:0.31622777 2106:0.31622777 4091:0.31622777 
2.654780842084728 5:0.2773501 47:0.2773501 55:0.2773501 61:0.2773501 101:0.2773501 113:0.2773501 179:0.2773501 180:0.2773501 750:0.2773501 1287:0.2773501 1964:0.2773501 4755:0.2773501 5544:0.2773501 
2.886331593489941 19:0.35355339 44:0.35355339 343:0.35355339 587:0.35355339 616:0.35355339 1515:0.35355339 1740:0.35355339 5414:0.35355339 
1.062144019073164 338:0.37796447 1494:0.37796447 1743:0.37796447 1908:0.37796447 2198:0.37796447 2921:0.37796447 4114:0.37796447 
4.788725762923901 28:0.5 101:0.5 1223:0.5 2487:0.5 
0.1921382684348593 93:0.5 2221:0.5 3661:0.5 4772:0.5 
1.018210820723559 101:0.30151134 222:0.30151134 310:0.30151134 383:0.30151134 388:0.30151134 722:0.30151134 730:0.30151134 851:0.30151134 937:0.30151134 2143:0.30151134 2917:0.30151134 
0.1455205995405189 3:0.31622777 50:0.31622777 101:0.31622777 295:0.31622777 450:0.31622777 1078:0.31622777 1253:0.31622777 3581:0.31622777 3756:0.31622777 5400:0.31622777 
5.65685424949 55:0.30151134 67:0.30151134 101:0.30151134 177:0.30151134 189:0.30151134 241:0.30151134 256:0.30151134 306:0.30151134 436:0.30151134 2345:0.30151134 5567:0.30151134 
1.854303276033199 175:0.33333333 576:0.33333333 1296:0.33333333 1471:0.33333333 1578:0.33333333 2348:0.33333333 2395:0.33333333 2902:0.33333333 5557:0.33333333 
1.453696139274023 370:0.57735027 605:0.57735027 612:0.57735027 
3.44913710356283 101:0.5 1065:0.5 1808:0.5 2116:0.5 
1.851029897816795 101:0.31622777 177:0.31622777 279:0.31622777 284:0.31622777 1178:0.31622777 1421:0.31622777 2004:0.31622777 3183:0.31622777 4651:0.31622777 5380:0.31622777 
1.373210578764131 3:0.26726124 4:0.26726124 47:0.53452248 411:0.26726124 436:0.26726124 460:0.26726124 1260:0.26726124 2935:0.26726124 4454:0.26726124 4777:0.26726124 5363:0.26726124 
1.403646529542649 580:0.5 1890:0.5 4481:0.5 5633:0.5 
1.422524895860864 35:0.30151134 101:0.30151134 177:0.30151134 546:0.30151134 1472:0.30151134 1773:0.30151134 2658:0.30151134 2662:0.30151134 3971:0.30151134 4184:0.30151134 5570:0.30151134 
0.9534356589262588 47:0.30151134 91:0.30151134 360:0.30151134 486:0.30151134 626:0.30151134 1118:0.60302269 1712:0.30151134 2921:0.30151134 
0.01807936021435768 3:0.33333333 4:0.33333333 101:0.33333333 436:0.33333333 957:0.33333333 1520:0.33333333 1651:0.33333333 2675:0.33333333 5476:0.33333333 
1.681357063915787 87:0.35355339 227:0.35355339 320:0.35355339 587:0.35355339 1283:0.35355339 1296:0.35355339 2395:0.35355339 4945:0.35355339 
0.5825588623179834 55:0.30151134 101:0.30151134 143:0.30151134 177:0.30151134 407:0.30151134 679:0.30151134 824:0.30151134 1085:0.30151134 1990:0.30151134 5380:0.30151134 5560:0.30151134 
1.26861374258607 3:0.26726124 4:0.26726124 8:0.26726124 26:0.26726124 101:0.26726124 142:0.26726124 723:0.26726124 1014:0.26726124 1016:0.26726124 1031:0.26726124 2072:0.26726124 4096:0.26726124 4756:0.26726124 5381:0.26726124 
2.101072078781672 101:0.33333333 177:0.33333333 263:0.33333333 312:0.33333333 430:0.33333333 2832:0.33333333 3200:0.33333333 4276:0.33333333 5359:0.33333333 
2.009734553460028 37:0.5 250:0.5 881:0.5 4674:0.5 
1.283504521829484 18:0.35355339 101:0.35355339 396:0.35355339 1260:0.35355339 2195:0.35355339 2591:0.35355339 3634:0.35355339 5380:0.35355339 
1.667661594273943 47:0.23570226 101:0.47140452 182:0.23570226 426:0.23570226 558:0.23570226 607:0.47140452 643:0.23570226 901:0.23570226 1491:0.23570226 1947:0.23570226 2002:0.23570226 2522:0.23570226 
1.882885641964557 607:0.57735027 1065:0.57735027 1650:0.57735027 
1.099520584345498 47:0.40824829 101:0.40824829 307:0.40824829 814:0.40824829 856:0.40824829 3578:0.40824829 
0.6988185402311879 1252:0.5 1681:0.5 4357:0.5 5348:0.5 
0.4111427031798824 55:0.37796447 607:0.37796447 795:0.37796447 1650:0.37796447 2730:0.37796447 3158:0.37796447 4622:0.37796447 
0.1064979138000773 37:0.33333333 47:0.33333333 101:0.33333333 111:0.33333333 116:0.33333333 177:0.33333333 204:0.33333333 552:0.33333333 556:0.33333333 
1.426046883228087 1:0.2773501 61:0.2773501 101:0.2773501 177:0.2773501 526:0.2773501 555:0.2773501 634:0.2773501 673:0.2773501 1743:0.2773501 1762:0.2773501 2454:0.2773501 3500:0.2773501 4607:0.2773501 
3.18465837424925 19:0.35355339 44:0.35355339 236:0.35355339 579:0.35355339 587:0.35355339 687:0.35355339 2822:0.35355339 4417:0.35355339 
0.7910005532950872 38:0.40824829 61:0.40824829 92:0.40824829 177:0.40824829 1570:0.40824829 5380:0.40824829 
0.2123810389521542 14:0.22941573 42:0.22941573 55:0.22941573 101:0.22941573 210:0.22941573 265:0.22941573 534:0.22941573 851:0.22941573 1223:0.22941573 1486:0.22941573 1518:0.22941573 1997:0.45883147 2514:0.22941573 4123:0.22941573 4763:0.22941573 5379:0.22941573 
0.3376768555952329 101:0.40824829 968:0.40824829 1343:0.40824829 2011:0.40824829 2048:0.40824829 2121:0.40824829 
0.01147699289117934 55:0.40824829 290:0.40824829 303:0.40824829 452:0.40824829 894:0.40824829 991:0.40824829 
0.4651172227442855 4161:0.57735027 4292:0.57735027 4666:0.57735027 
2.001201057197532 1:0.35355339 101:0.35355339 177:0.35355339 493:0.35355339 2363:0.35355339 4607:0.35355339 5403:0.35355339 5570:0.35355339 
0.4846903944342053 6:0.30151134 81:0.30151134 506:0.30151134 674:0.30151134 860:0.30151134 887:0.30151134 1391:0.30151134 1593:0.30151134 1934:0.30151134 2726:0.30151134 3504:0.30151134 
5.290228801482398 62:0.4472136 142:0.4472136 171:0.4472136 2925:0.4472136 3122:0.4472136 
0.299676548661687 3:0.24253563 16:0.24253563 75:0.24253563 192:0.24253563 251:0.24253563 528:0.24253563 602:0.24253563 628:0.24253563 674:0.24253563 698:0.24253563 902:0.24253563 1247:0.24253563 2137:0.24253563 2194:0.24253563 2511:0.24253563 2921:0.24253563 3842:0.24253563 
1.153174647204344 6:0.40824829 26:0.40824829 55:0.40824829 93:0.40824829 1065:0.40824829 1747:0.40824829 
5.276208895942572 8:0.37796447 9:0.37796447 70:0.37796447 101:0.37796447 1497:0.37796447 2370:0.37796447 3085:0.37796447 
0.3257476408145986 177:0.35355339 188:0.35355339 283:0.35355339 290:0.35355339 436:0.35355339 1397:0.35355339 1748:0.35355339 1975:0.35355339 
5.65685424949 1:0.30151134 5:0.30151134 9:0.30151134 10:0.30151134 51:0.30151134 101:0.60302269 154:0.30151134 1504:0.30151134 
0.5024355120797839 3:0.31622777 4:0.31622777 29:0.31622777 30:0.31622777 101:0.31622777 402:0.31622777 418:0.31622777 2921:0.31622777 3095:0.31622777 5364:0.31622777 
4.44250025180641 101:0.40824829 179:0.40824829 218:0.40824829 556:0.40824829 1092:0.40824829 1805:0.40824829 
0.7832681819377216 988:0.5 2027:0.5 2196:0.5 4060:0.5 
0.02881377063989237 29:0.35355339 30:0.35355339 37:0.35355339 93:0.35355339 146:0.35355339 815:0.35355339 929:0.35355339 2519:0.35355339 
1.336489807482617 101:0.35355339 328:0.35355339 367:0.35355339 1260:0.35355339 1518:0.35355339 1667:0.35355339 2060:0.35355339 3705:0.35355339 
2.345643765724119 26:0.25 47:0.25 101:0.5 223:0.25 428:0.25 611:0.25 664:0.25 796:0.25 853:0.25 1239:0.25 1408:0.25 1570:0.25 2359:0.25 
0.7414941402190838 44:0.30151134 48:0.30151134 87:0.30151134 320:0.30151134 587:0.30151134 938:0.30151134 2070:0.30151134 2598:0.30151134 3614:0.30151134 5498:0.30151134 5516:0.30151134 
1.12881584111462 1:0.25 61:0.25 101:0.25 208:0.25 358:0.25 474:0.25 479:0.5 766:0.25 828:0.25 1309:0.25 1902:0.25 2530:0.25 2921:0.25 
1.492789471446501 92:0.28867513 101:0.28867513 525:0.28867513 721:0.28867513 769:0.28867513 1187:0.28867513 1223:0.28867513 1805:0.28867513 2371:0.28867513 4046:0.28867513 5373:0.28867513 5380:0.28867513 
0.9915955305279668 91:0.23570226 101:0.47140452 222:0.23570226 251:0.23570226 789:0.23570226 1037:0.23570226 1065:0.23570226 1418:0.23570226 1734:0.23570226 1808:0.23570226 3148:0.23570226 3852:0.23570226 5380:0.23570226 5464:0.23570226 5466:0.23570226 
3.469980085609524 28:0.40824829 49:0.40824829 777:0.40824829 1519:0.40824829 2353:0.40824829 2368:0.40824829 
1.270072340359486 101:0.66666667 276:0.33333333 791:0.33333333 958:0.33333333 2908:0.33333333 3451:0.33333333 
3.916288753065547 5:0.37796447 176:0.37796447 813:0.37796447 1771:0.37796447 2387:0.37796447 3202:0.37796447 4682:0.37796447 
0.1001615059012312 345:0.5 929:0.5 1721:0.5 1954:0.5 
0.3741508430617033 55:0.35355339 101:0.35355339 201:0.35355339 370:0.35355339 794:0.35355339 2567:0.35355339 2739:0.35355339 4428:0.35355339 
2.09243139311492 9:0.30151134 18:0.30151134 61:0.30151134 101:0.30151134 298:0.30151134 353:0.30151134 1507:0.30151134 1794:0.30151134 1815:0.30151134 4570:0.30151134 5568:0.30151134 
1.85815162595116 101:0.4472136 436:0.4472136 1747:0.4472136 3101:0.4472136 3993:0.4472136 
2.445096710908318 44:0.4472136 48:0.4472136 410:0.4472136 587:0.4472136 740:0.4472136 
0.3548550398330262 159:0.33333333 319:0.33333333 1065:0.33333333 1808:0.33333333 1902:0.66666667 5365:0.33333333 
1.395208641734198 725:0.4472136 907:0.4472136 2195:0.4472136 2744:0.4472136 5511:0.4472136 
0.2194344122471484 1:0.30151134 24:0.30151134 99:0.30151134 101:0.30151134 206:0.30151134 850:0.30151134 907:0.30151134 3114:0.30151134 3793:0.30151134 4593:0.30151134 4636:0.30151134 
0.8854463703054494 55:0.57735027 1589:0.57735027 3697:0.57735027 
1.025127716771317 1913:0.70710678 4106:0.70710678 
5.65685424949 6:0.33333333 10:0.33333333 51:0.33333333 91:0.33333333 92:0.33333333 132:0.33333333 418:0.33333333 4684:0.33333333 5380:0.33333333 
0.4630029655875747 9:0.25819889 49:0.25819889 101:0.25819889 113:0.25819889 341:0.25819889 375:0.25819889 392:0.25819889 670:0.25819889 777:0.25819889 1427:0.25819889 1518:0.25819889 2353:0.25819889 2900:0.25819889 4613:0.25819889 5379:0.25819889 
0.3262239908780133 61:0.33333333 92:0.33333333 108:0.33333333 177:0.33333333 237:0.33333333 1173:0.33333333 1769:0.33333333 3498:0.33333333 5380:0.33333333 
0.09662623473841225 55:0.5 219:0.5 257:0.5 5500:0.5 
0.1279909712154239 29:0.4472136 30:0.4472136 1570:0.4472136 1754:0.4472136 3458:0.4472136 
0.1731786458584961 72:0.40824829 101:0.40824829 607:0.40824829 856:0.40824829 1586:0.40824829 4562:0.40824829 
0.5060669592898095 55:0.40824829 264:0.40824829 639:0.40824829 809:0.40824829 4660:0.40824829 4728:0.40824829 
1.064713241684919 4409:0.70710678 4462:0.70710678 
1.011803989734862 6:0.30151134 35:0.30151134 60:0.30151134 110:0.30151134 168:0.30151134 319:0.30151134 992:0.30151134 1242:0.30151134 2154:0.30151134 2921:0.30151134 3161:0.30151134 
2.377436036665331 1:0.24253563 3:0.24253563 12:0.24253563 14:0.48507125 29:0.24253563 30:0.24253563 101:0.24253563 177:0.24253563 285:0.24253563 307:0.24253563 318:0.24253563 1130:0.24253563 1144:0.24253563 5349:0.24253563 
0.2374556150531605 101:0.48507125 115:0.24253563 173:0.24253563 177:0.24253563 475:0.24253563 607:0.24253563 680:0.24253563 721:0.24253563 867:0.24253563 907:0.24253563 1121:0.24253563 1427:0.24253563 2231:0.24253563 2622:0.24253563 
0.04347481914636305 888:0.33333333 931:0.33333333 1188:0.33333333 2001:0.33333333 2053:0.33333333 2224:0.33333333 2534:0.33333333 2594:0.33333333 2789:0.33333333 
0.1582239847246293 25:0.28867513 47:0.28867513 101:0.28867513 445:0.28867513 1470:0.28867513 1488:0.28867513 1672:0.28867513 1808:0.28867513 3150:0.28867513 4375:0.28867513 4412:0.28867513 5563:0.28867513 
3.304854792333681 48:0.35355339 587:0.70710678 740:0.35355339 1820:0.35355339 2590:0.35355339 
0.6178441760946665 3:0.37796447 4:0.37796447 101:0.37796447 436:0.37796447 690:0.37796447 2657:0.37796447 2921:0.37796447 
0.8708231308890132 37:0.37796447 101:0.37796447 111:0.37796447 177:0.37796447 465:0.37796447 593:0.37796447 1360:0.37796447 
5.65685424949 101:0.57735027 1065:0.57735027 1570:0.57735027 
3.397154523513238 101:0.57735027 418:0.57735027 1511:0.57735027 
5.65685424949 5:0.31622777 12:0.31622777 27:0.31622777 55:0.31622777 101:0.31622777 177:0.31622777 418:0.31622777 428:0.31622777 765:0.31622777 1478:0.31622777 
3.198063129926766 1:0.25 11:0.25 77:0.25 101:0.5 170:0.25 436:0.25 640:0.25 1064:0.25 2921:0.25 3689:0.25 3699:0.25 4657:0.25 5379:0.25 
1.938544717422764 3:0.40824829 68:0.40824829 101:0.40824829 1250:0.40824829 1570:0.40824829 2124:0.40824829 
2.994316024359747 16:0.22941573 35:0.22941573 101:0.22941573 218:0.22941573 367:0.22941573 607:0.22941573 851:0.22941573 1084:0.22941573 1182:0.22941573 1467:0.22941573 1507:0.45883147 2364:0.22941573 2419:0.22941573 4675:0.22941573 4733:0.22941573 4758:0.22941573 
4.271109864719924 5:0.60302269 47:0.30151134 65:0.30151134 611:0.30151134 706:0.30151134 734:0.30151134 4306:0.30151134 4728:0.30151134 
1.879112266427515 15:0.30151134 38:0.30151134 101:0.60302269 547:0.30151134 747:0.30151134 1065:0.30151134 3853:0.30151134 5360:0.30151134 
0.02413367150695995 8:0.30151134 55:0.30151134 72:0.30151134 89:0.30151134 271:0.30151134 436:0.30151134 1426:0.30151134 1580:0.30151134 1747:0.30151134 3108:0.30151134 5380:0.30151134 
1.748626846025904 7:0.20851441 26:0.41702883 101:0.20851441 165:0.20851441 187:0.20851441 436:0.62554324 473:0.20851441 804:0.20851441 1747:0.20851441 1786:0.20851441 2115:0.20851441 3101:0.20851441 
3.24776424830102 11:0.4472136 55:0.4472136 2935:0.4472136 5423:0.4472136 5481:0.4472136 
0.1217792985438887 55:0.33333333 101:0.33333333 178:0.33333333 283:0.33333333 442:0.33333333 1338:0.33333333 2083:0.33333333 3666:0.33333333 3670:0.33333333 
1.168566687585336 11:0.30151134 55:0.30151134 101:0.60302269 191:0.30151134 953:0.30151134 1120:0.30151134 1158:0.30151134 2347:0.30151134 
0.1639573624209029 587:0.57735027 1654:0.57735027 2395:0.57735027 
1.299702366996816 61:0.5 193:0.5 948:0.5 5540:0.5 
0.9663563221971937 101:0.57735027 792:0.57735027 1019:0.57735027 
0.1004311770827776 228:0.57735027 4439:0.57735027 5521:0.57735027 
0.990492051125697 92:0.4472136 214:0.4472136 327:0.4472136 1570:0.4472136 4780:0.4472136 
5.65685424949 28:0.57735027 55:0.57735027 4777:0.57735027 
1.460170134877512 3:0.33333333 4:0.33333333 101:0.33333333 370:0.33333333 465:0.33333333 667:0.33333333 1068:0.33333333 1091:0.33333333 1799:0.33333333 
0.663404238234902 3:0.25819889 47:0.25819889 55:0.25819889 92:0.25819889 101:0.25819889 177:0.25819889 249:0.25819889 302:0.25819889 311:0.25819889 462:0.25819889 1139:0.25819889 1419:0.25819889 2131:0.25819889 2416:0.25819889 2516:0.25819889 
0.9722491739712921 101:0.22941573 125:0.22941573 241:0.22941573 671:0.22941573 853:0.22941573 1481:0.22941573 1735:0.22941573 2018:0.22941573 2485:0.22941573 2708:0.6882472 4422:0.22941573 
1.563533395094937 55:0.57735027 101:0.57735027 241:0.57735027 
3.016462393582937 101:0.31622777 272:0.31622777 347:0.31622777 536:0.31622777 605:0.31622777 1508:0.31622777 1510:0.31622777 1570:0.31622777 4210:0.31622777 5380:0.31622777 
1.485245467242328 8:0.35355339 193:0.35355339 511:0.35355339 877:0.35355339 1511:0.35355339 4630:0.35355339 4671:0.35355339 5532:0.35355339 
1.877254271649986 6:0.33333333 101:0.33333333 900:0.33333333 1154:0.66666667 5471:0.33333333 5501:0.33333333 
0.2847532864213818 109:0.33333333 179:0.33333333 532:0.33333333 594:0.33333333 831:0.33333333 893:0.33333333 2862:0.33333333 3097:0.33333333 3644:0.33333333 
0.1653948685895832 35:0.28867513 47:0.28867513 69:0.28867513 177:0.28867513 535:0.28867513 1021:0.28867513 1297:0.28867513 2631:0.28867513 2859:0.28867513 3940:0.28867513 4580:0.28867513 5380:0.28867513 
3.221741360079917 47:0.37796447 89:0.37796447 116:0.37796447 142:0.37796447 707:0.37796447 4690:0.37796447 5380:0.37796447 
1.527395994885165 1570:0.57735027 3110:0.57735027 4658:0.57735027 
0.08487107098973877 101:0.35355339 191:0.35355339 774:0.35355339 1153:0.35355339 2379:0.35355339 2553:0.35355339 2600:0.35355339 2921:0.35355339 
5.65685424949 1:0.35355339 2:0.35355339 9:0.35355339 101:0.35355339 584:0.35355339 668:0.35355339 2380:0.35355339 5403:0.35355339 
0.01829266887904656 35:0.2773501 47:0.2773501 143:0.2773501 300:0.5547002 390:0.2773501 1219:0.2773501 3200:0.5547002 
1.364184046485382 101:0.57735027 664:0.57735027 1366:0.57735027 
0.09826739338907862 25:0.37796447 101:0.37796447 135:0.37796447 418:0.37796447 900:0.37796447 1034:0.37796447 1223:0.37796447 
1.985488023963033 3:0.33333333 35:0.33333333 61:0.33333333 101:0.33333333 177:0.33333333 489:0.33333333 1930:0.33333333 2579:0.33333333 4762:0.33333333 
0.9918348025613143 587:0.57735027 2427:0.57735027 3984:0.57735027 
0.5264494065049015 101:0.66666667 115:0.33333333 700:0.33333333 1252:0.33333333 4669:0.33333333 4768:0.33333333 
3.011579231734212 233:0.5 269:0.5 669:0.5 1570:0.5 
1.723390894700492 274:0.33333333 276:0.33333333 1602:0.33333333 1773:0.33333333 3472:0.33333333 4751:0.33333333 5358:0.33333333 5380:0.33333333 5486:0.33333333 
0.6558774776718107 101:0.25819889 465:0.25819889 588:0.25819889 896:0.25819889 1646:0.25819889 1647:0.25819889 1804:0.25819889 1963:0.51639778 2026:0.25819889 3521:0.25819889 5476:0.25819889 5567:0.25819889 
0.1410690955177739 118:0.70710678 1342:0.70710678 
1.56603755626241 55:0.51639778 101:0.51639778 103:0.25819889 271:0.25819889 550:0.25819889 607:0.25819889 1284:0.25819889 1483:0.25819889 1802:0.25819889 
1.012477929487285 101:0.4472136 808:0.4472136 866:0.4472136 1396:0.4472136 2366:0.4472136 
1.537613889584522 23:0.40824829 72:0.40824829 101:0.40824829 1747:0.40824829 2097:0.40824829 2600:0.40824829 
1.834231256244664 55:0.40824829 101:0.40824829 202:0.40824829 282:0.40824829 603:0.40824829 1069:0.40824829 
1.779053167081787 55:0.35355339 101:0.35355339 241:0.35355339 493:0.35355339 1226:0.35355339 1473:0.35355339 3163:0.35355339 4632:0.35355339 
1.651188834129861 101:0.33333333 177:0.33333333 257:0.33333333 361:0.33333333 523:0.33333333 1570:0.33333333 1793:0.33333333 5382:0.33333333 5558:0.33333333 
4.530903514973452 39:0.23570226 40:0.23570226 55:0.23570226 61:0.23570226 101:0.23570226 116:0.47140452 120:0.23570226 177:0.23570226 418:0.23570226 669:0.47140452 1747:0.23570226 5404:0.23570226 
0.3869937163186311 29:0.30151134 30:0.30151134 1395:0.30151134 1475:0.30151134 1892:0.30151134 2470:0.30151134 2801:0.30151134 2830:0.30151134 3566:0.30151134 3948:0.30151134 5464:0.30151134 
1.098455984319883 1:0.22941573 6:0.22941573 12:0.22941573 26:0.22941573 55:0.22941573 81:0.22941573 101:0.22941573 130:0.22941573 221:0.22941573 641:0.45883147 734:0.22941573 1436:0.22941573 1901:0.22941573 3082:0.22941573 5403:0.22941573 5404:0.22941573 
2.944937237070265 6:0.4472136 101:0.4472136 271:0.4472136 440:0.4472136 1260:0.4472136 
0.05215593324771756 237:0.4472136 355:0.4472136 3110:0.4472136 3629:0.4472136 5558:0.4472136 
3.130740014952909 4:0.35355339 8:0.35355339 55:0.35355339 101:0.35355339 465:0.35355339 822:0.35355339 1223:0.35355339 4663:0.35355339 
1.260819407652018 6:0.40824829 85:0.40824829 206:0.40824829 1260:0.40824829 2921:0.40824829 3855:0.40824829 
0.5493876061251147 1:0.30151134 9:0.30151134 87:0.30151134 101:0.30151134 176:0.30151134 179:0.30151134 607:0.30151134 936:0.30151134 943:0.30151134 3564:0.30151134 3965:0.30151134 
2.653596008270822 101:0.57735027 276:0.57735027 436:0.57735027 
1.081126940654431 3:0.40824829 101:0.40824829 508:0.40824829 1570:0.40824829 4728:0.40824829 5354:0.40824829 
0.5879376534316841 1189:0.70710678 3817:0.70710678 
0.482242864804768 6:0.31622777 24:0.31622777 101:0.31622777 125:0.31622777 223:0.31622777 449:0.31622777 489:0.31622777 1904:0.31622777 3110:0.31622777 3789:0.31622777 
1.366295719636184 9:0.33333333 36:0.33333333 101:0.33333333 537:0.33333333 604:0.33333333 1497:0.33333333 2370:0.33333333 4116:0.33333333 4628:0.33333333 
1.081469049669426 101:0.4472136 308:0.4472136 2066:0.4472136 2740:0.4472136 2853:0.4472136 
5.65685424949 55:0.70710678 101:0.70710678 
5.282816644282573 10:0.4472136 61:0.4472136 214:0.4472136 327:0.4472136 5463:0.4472136 
0.06241080929647693 177:0.30151134 208:0.30151134 445:0.30151134 1415:0.30151134 1492:0.30151134 1769:0.30151134 2454:0.30151134 2718:0.30151134 2825:0.30151134 3456:0.30151134 3609:0.30151134 
5.65685424949 2:0.60302269 47:0.30151134 63:0.30151134 101:0.30151134 177:0.30151134 191:0.30151134 222:0.30151134 1280:0.30151134 
0.851324379158985 644:0.5 2886:0.5 3166:0.5 4710:0.5 
3.600176055441837 1:0.21320072 14:0.42640143 55:0.21320072 101:0.42640143 226:0.21320072 669:0.42640143 735:0.21320072 1570:0.21320072 2372:0.21320072 2921:0.21320072 3098:0.21320072 4653:0.21320072 5405:0.21320072 
5.65685424949 11:0.30151134 101:0.60302269 667:0.30151134 2343:0.30151134 2922:0.30151134 3099:0.30151134 3199:0.30151134 5396:0.30151134 
1.275665708445911 7:0.30151134 82:0.30151134 83:0.30151134 345:0.30151134 408:0.30151134 665:0.30151134 1721:0.30151134 2696:0.30151134 3113:0.30151134 3739:0.30151134 4128:0.30151134 
0.8186642395852406 26:0.26726124 35:0.26726124 47:0.26726124 199:0.26726124 208:0.26726124 277:0.53452248 607:0.26726124 2921:0.26726124 3597:0.26726124 3846:0.26726124 5631:0.26726124 
0.8511756837619928 14:0.48507125 39:0.24253563 40:0.24253563 55:0.24253563 101:0.24253563 112:0.24253563 116:0.24253563 177:0.24253563 269:0.24253563 295:0.24253563 589:0.24253563 627:0.24253563 2134:0.24253563 4555:0.24253563 
2.004006810693917 1:0.25 101:0.5 177:0.25 190:0.25 276:0.25 423:0.25 606:0.25 612:0.25 892:0.25 1223:0.25 1570:0.25 2463:0.25 5506:0.25 
1.761628877593679 47:0.40824829 101:0.40824829 226:0.40824829 1395:0.40824829 3824:0.40824829 4076:0.40824829 
1.999099012755282 14:0.26726124 101:0.26726124 184:0.53452248 262:0.26726124 310:0.26726124 1223:0.26726124 1408:0.26726124 2371:0.26726124 2396:0.26726124 3812:0.26726124 4326:0.26726124 
5.65685424949 1:0.37796447 101:0.37796447 153:0.37796447 157:0.37796447 293:0.37796447 403:0.37796447 611:0.37796447 
0.9235368827294227 29:0.26726124 30:0.26726124 101:0.26726124 177:0.26726124 239:0.26726124 340:0.26726124 789:0.26726124 1747:0.26726124 2064:0.26726124 2195:0.26726124 5360:0.53452248 
4.493736544381601 16:0.35355339 101:0.35355339 142:0.35355339 547:0.35355339 1250:0.35355339 1260:0.35355339 3107:0.35355339 5362:0.35355339 
0.3920097400044036 7:0.40824829 247:0.40824829 413:0.40824829 688:0.40824829 2795:0.40824829 2925:0.40824829 
1.291309256351856 101:0.5 611:0.5 1894:0.5 5370:0.5 
0.8421979776224077 101:0.66666667 851:0.33333333 893:0.33333333 1211:0.33333333 1399:0.33333333 5486:0.33333333 
0.3705938132082535 35:0.22941573 49:0.22941573 101:0.22941573 108:0.22941573 112:0.22941573 179:0.22941573 245:0.22941573 777:0.22941573 818:0.22941573 951:0.22941573 967:0.22941573 984:0.22941573 1151:0.22941573 1518:0.22941573 2144:0.22941573 2353:0.22941573 2764:0.22941573 4399:0.22941573 4404:0.22941573 
1.484816360462008 82:0.5 83:0.5 418:0.5 4136:0.5 
0.05018943276186461 47:0.23570226 101:0.47140452 113:0.23570226 177:0.23570226 785:0.47140452 795:0.47140452 1369:0.23570226 1423:0.23570226 5470:0.23570226 
0.2094897143333642 35:0.25819889 101:0.25819889 602:0.25819889 618:0.25819889 953:0.25819889 975:0.25819889 1350:0.25819889 1671:0.25819889 2019:0.25819889 2921:0.25819889 3656:0.51639778 4438:0.25819889 
5.65685424949 9:0.37796447 101:0.37796447 204:0.37796447 607:0.37796447 1507:0.37796447 4713:0.37796447 5379:0.37796447 
0.3981959560921846 101:0.35355339 232:0.35355339 356:0.35355339 451:0.35355339 747:0.35355339 951:0.35355339 2378:0.35355339 3822:0.35355339 
0.4791260637853238 87:0.30151134 167:0.30151134 644:0.30151134 2114:0.30151134 2171:0.60302269 2395:0.30151134 3160:0.30151134 5377:0.30151134 
0.3078726524887888 9:0.31622777 55:0.31622777 101:0.31622777 794:0.63245553 2398:0.31622777 2704:0.31622777 5405:0.31622777 
3.023687739519641 9:0.25 14:0.5 101:0.5 141:0.25 196:0.25 342:0.25 506:0.25 1236:0.25 3102:0.25 4130:0.25 
0.02193901251483316 7:0.31622777 8:0.31622777 33:0.31622777 55:0.31622777 101:0.31622777 128:0.31622777 149:0.31622777 152:0.31622777 562:0.31622777 1387:0.31622777 
1.150112246070987 18:0.37796447 101:0.37796447 2092:0.37796447 2808:0.37796447 3634:0.37796447 3702:0.37796447 3839:0.37796447 
3.225232237982451 1:0.30151134 11:0.30151134 101:0.30151134 188:0.30151134 206:0.30151134 1128:0.30151134 1226:0.30151134 1260:0.30151134 1636:0.30151134 2416:0.30151134 2893:0.30151134 
0.7214740301168502 949:0.70710678 2149:0.70710678 
2.059082923010291 80:0.40824829 82:0.40824829 83:0.40824829 2201:0.40824829 3109:0.40824829 4728:0.40824829 
0.7746605253940158 3:0.2773501 4:0.2773501 26:0.2773501 35:0.2773501 54:0.2773501 96:0.2773501 101:0.2773501 199:0.2773501 1518:0.2773501 1685:0.2773501 2039:0.2773501 2242:0.2773501 4556:0.2773501 
0.4841425235699205 35:0.33333333 42:0.33333333 101:0.33333333 872:0.33333333 1931:0.33333333 2162:0.33333333 2564:0.33333333 3454:0.33333333 3897:0.33333333 
2.594457350178514 3:0.1796053 5:0.1796053 11:0.1796053 14:0.3592106 89:0.1796053 101:0.53881591 177:0.3592106 222:0.1796053 431:0.1796053 506:0.1796053 634:0.1796053 952:0.1796053 1077:0.1796053 1436:0.1796053 1803:0.1796053 2422:0.1796053 5559:0.1796053 
0.1575958795475016 101:0.5 145:0.5 900:0.5 2155:0.5 
2.533525894485703 63:0.4472136 92:0.4472136 159:0.4472136 1215:0.4472136 5380:0.4472136 
0.4071193569351231 101:0.4472136 177:0.4472136 244:0.4472136 4735:0.4472136 4775:0.4472136 
0.4668783472632517 101:0.40824829 116:0.40824829 177:0.40824829 244:0.40824829 556:0.40824829 584:0.40824829 
1.466370160386138 35:0.33333333 75:0.33333333 101:0.33333333 141:0.33333333 208:0.33333333 590:0.33333333 851:0.33333333 1952:0.33333333 2921:0.33333333 
0.1599829977985491 14:0.37796447 87:0.37796447 853:0.37796447 2125:0.37796447 2396:0.37796447 4137:0.37796447 5568:0.37796447 
1.114204909764329 4:0.2773501 28:0.2773501 35:0.2773501 101:0.2773501 119:0.2773501 211:0.2773501 241:0.2773501 263:0.2773501 314:0.2773501 319:0.2773501 335:0.2773501 462:0.2773501 2921:0.2773501 
0.6430578098668209 101:0.40824829 177:0.40824829 234:0.40824829 465:0.40824829 1196:0.40824829 3834:0.40824829 
2.784668288498273 1:0.33333333 35:0.33333333 101:0.33333333 187:0.33333333 852:0.33333333 1570:0.33333333 2921:0.33333333 3428:0.33333333 4241:0.33333333 
5.65685424949 2:0.35355339 9:0.35355339 101:0.35355339 584:0.35355339 1762:0.35355339 2921:0.35355339 3101:0.35355339 5403:0.35355339 
0.4418797571985471 48:0.40824829 1291:0.40824829 2196:0.40824829 2395:0.40824829 3166:0.40824829 3177:0.40824829 
1.418205336170062 47:0.30151134 55:0.30151134 67:0.30151134 101:0.60302269 241:0.30151134 430:0.30151134 814:0.30151134 3100:0.30151134 
5.65685424949 101:0.37796447 107:0.37796447 460:0.37796447 583:0.37796447 2210:0.37796447 3703:0.37796447 4660:0.37796447 
0.4686435388480089 44:0.30151134 48:0.30151134 114:0.30151134 587:0.30151134 740:0.30151134 800:0.30151134 1241:0.30151134 1766:0.30151134 2119:0.30151134 3930:0.30151134 4635:0.30151134 
1.56413668024076 1572:0.70710678 1737:0.70710678 
0.002597805639918218 65:0.31622777 101:0.31622777 538:0.31622777 592:0.31622777 851:0.31622777 864:0.31622777 1775:0.31622777 1808:0.31622777 2050:0.31622777 3675:0.31622777 
1.122745271611036 114:0.35355339 143:0.35355339 175:0.35355339 587:0.35355339 2205:0.35355339 3618:0.35355339 4275:0.35355339 4495:0.35355339 
0.9104044513619106 101:0.40824829 177:0.40824829 1592:0.40824829 1671:0.40824829 3485:0.40824829 4077:0.40824829 
1.124448294028334 101:0.28867513 143:0.28867513 177:0.28867513 210:0.28867513 535:0.28867513 855:0.28867513 976:0.28867513 3196:0.28867513 4064:0.28867513 4376:0.28867513 5379:0.28867513 5380:0.28867513 
5.65685424949 1:0.37796447 17:0.37796447 66:0.37796447 101:0.37796447 116:0.37796447 350:0.37796447 586:0.37796447 
0.8227847698538369 11:0.24253563 14:0.48507125 17:0.24253563 92:0.24253563 101:0.48507125 402:0.24253563 641:0.24253563 889:0.24253563 902:0.24253563 1436:0.24253563 2925:0.24253563 
0.5040248033131732 20:0.35355339 34:0.35355339 305:0.35355339 443:0.35355339 513:0.35355339 577:0.35355339 933:0.35355339 4326:0.35355339 
0.5334711224326459 101:0.31622777 177:0.31622777 294:0.31622777 1436:0.31622777 1767:0.63245553 3710:0.31622777 4393:0.31622777 
0.2136487202534023 144:0.4472136 200:0.4472136 1083:0.4472136 1220:0.4472136 1497:0.4472136 
4.390957709983552 6:0.4472136 146:0.4472136 181:0.4472136 418:0.4472136 2351:0.4472136 
2.011751131680427 368:0.5 1481:0.5 1507:0.5 2733:0.5 
1.801937856098526 44:0.28867513 48:0.57735027 1296:0.28867513 2196:0.28867513 2395:0.28867513 3166:0.28867513 3177:0.28867513 4699:0.28867513 5413:0.28867513 
0.9587291091526497 47:0.1767767 101:0.53033009 113:0.35355339 225:0.1767767 776:0.1767767 896:0.1767767 1369:0.35355339 1923:0.1767767 2212:0.1767767 2236:0.1767767 2925:0.1767767 3110:0.1767767 3565:0.1767767 3584:0.1767767 4391:0.1767767 4513:0.1767767 5349:0.1767767 5514:0.1767767 
3.42766722203775 87:0.4472136 175:0.4472136 320:0.4472136 812:0.4472136 4647:0.4472136 
0.1054401175859275 4:0.37796447 101:0.37796447 285:0.37796447 607:0.37796447 1366:0.37796447 2249:0.37796447 2922:0.37796447 
0.3772283103775976 47:0.2773501 60:0.2773501 101:0.2773501 283:0.2773501 418:0.2773501 854:0.2773501 1029:0.2773501 1260:0.2773501 1331:0.2773501 1748:0.2773501 2541:0.2773501 3197:0.2773501 4646:0.2773501 
1.425985942039444 101:0.4472136 666:0.4472136 1208:0.4472136 1802:0.4472136 3801:0.4472136 
0.5465263994014588 55:0.5 3509:0.5 4499:0.5 4569:0.5 
0.4125892067781829 14:0.47140452 29:0.23570226 30:0.23570226 77:0.23570226 101:0.47140452 250:0.23570226 397:0.23570226 747:0.23570226 824:0.23570226 881:0.23570226 2438:0.23570226 4684:0.23570226 
3.632350337055147 1:0.33333333 101:0.33333333 293:0.33333333 386:0.33333333 1570:0.33333333 1890:0.33333333 2921:0.33333333 3149:0.33333333 4727:0.33333333 
0.6401044957922954 14:0.28867513 207:0.28867513 356:0.28867513 451:0.28867513 888:0.28867513 1188:0.28867513 2001:0.28867513 2224:0.28867513 2349:0.28867513 2534:0.28867513 2594:0.28867513 2789:0.28867513 
1.84258323333853 44:0.4472136 587:0.4472136 2787:0.4472136 3909:0.4472136 3970:0.4472136 
2.399987376251529 1:0.28867513 35:0.28867513 101:0.28867513 145:0.28867513 188:0.28867513 351:0.28867513 521:0.28867513 1379:0.28867513 1517:0.28867513 1762:0.28867513 2197:0.28867513 2921:0.28867513 
1.927675723605881 14:0.47140452 55:0.23570226 101:0.47140452 129:0.23570226 213:0.23570226 241:0.23570226 259:0.23570226 384:0.23570226 607:0.23570226 864:0.23570226 1518:0.23570226 5611:0.23570226 
1.341033907758771 55:0.23570226 101:0.70710678 232:0.47140452 776:0.23570226 2092:0.23570226 2921:0.23570226 3586:0.23570226 
2.25325597655606 47:0.23570226 101:0.23570226 176:0.23570226 180:0.23570226 213:0.23570226 332:0.23570226 397:0.23570226 604:0.23570226 621:0.23570226 853:0.23570226 1427:0.23570226 1497:0.23570226 1518:0.23570226 2199:0.23570226 2775:0.23570226 3101:0.23570226 3178:0.23570226 4239:0.23570226 
1.05375976338432 7:0.35355339 11:0.35355339 92:0.35355339 133:0.35355339 184:0.35355339 314:0.35355339 1959:0.35355339 2494:0.35355339 
1.708260265583234 101:0.31622777 141:0.31622777 206:0.31622777 568:0.31622777 995:0.31622777 1260:0.31622777 1367:0.31622777 2163:0.31622777 2476:0.31622777 3201:0.31622777 
0.6322800119601596 1:0.25 7:0.25 29:0.25 30:0.25 101:0.5 103:0.25 177:0.25 241:0.25 723:0.25 809:0.25 952:0.25 4658:0.25 4754:0.25 
1.308839051076543 62:0.40824829 101:0.40824829 1612:0.40824829 1622:0.40824829 2189:0.40824829 3589:0.40824829 
1.736574054797557 6:0.25819889 129:0.25819889 177:0.25819889 184:0.25819889 865:0.25819889 868:0.25819889 984:0.25819889 1008:0.25819889 1225:0.25819889 1436:0.25819889 1611:0.25819889 1778:0.25819889 2089:0.25819889 3110:0.25819889 5363:0.25819889 
